<?xml version="1.0"?>
<MethodSetup Method="BDT::BDTG">
  <GeneralInfo>
    <Info name="TMVA Release" value="4.2.0 [262656]"/>
    <Info name="ROOT Release" value="6.02/13 [393741]"/>
    <Info name="Creator" value="xiao147"/>
    <Info name="Date" value="Mon May 25 22:30:58 2020"/>
    <Info name="Host" value="Linux vocms029.cern.ch 2.6.32-504.12.2.el6.x86_64 #1 SMP Thu Mar 12 07:33:00 CET 2015 x86_64 x86_64 x86_64 GNU/Linux"/>
    <Info name="Dir" value="/home/xiao147/private/TMVA_lambdaC/CMSSW_7_5_8_patch3/src/tmvaDntupleRunII_try_BDT_20172018/myTMVA"/>
    <Info name="Training events" value="476084"/>
    <Info name="TrainingTime" value="5.65815232e+02"/>
    <Info name="AnalysisType" value="Classification"/>
  </GeneralInfo>
  <Options>
    <Option name="V" modified="Yes">False</Option>
    <Option name="VerbosityLevel" modified="No">Default</Option>
    <Option name="VarTransform" modified="No">None</Option>
    <Option name="H" modified="Yes">False</Option>
    <Option name="CreateMVAPdfs" modified="No">False</Option>
    <Option name="IgnoreNegWeightsInTraining" modified="No">False</Option>
    <Option name="NTrees" modified="Yes">1000</Option>
    <Option name="MaxDepth" modified="Yes">2</Option>
    <Option name="MinNodeSize" modified="Yes">2.5%</Option>
    <Option name="nCuts" modified="Yes">20</Option>
    <Option name="BoostType" modified="Yes">Grad</Option>
    <Option name="AdaBoostR2Loss" modified="No">quadratic</Option>
    <Option name="UseBaggedBoost" modified="Yes">True</Option>
    <Option name="Shrinkage" modified="Yes">1.000000e-01</Option>
    <Option name="AdaBoostBeta" modified="No">5.000000e-01</Option>
    <Option name="UseRandomisedTrees" modified="No">False</Option>
    <Option name="UseNvars" modified="No">2</Option>
    <Option name="UsePoissonNvars" modified="No">True</Option>
    <Option name="BaggedSampleFraction" modified="Yes">5.000000e-01</Option>
    <Option name="UseYesNoLeaf" modified="No">True</Option>
    <Option name="NegWeightTreatment" modified="No">ignorenegweightsintraining</Option>
    <Option name="Css" modified="No">1.000000e+00</Option>
    <Option name="Cts_sb" modified="No">1.000000e+00</Option>
    <Option name="Ctb_ss" modified="No">1.000000e+00</Option>
    <Option name="Cbb" modified="No">1.000000e+00</Option>
    <Option name="NodePurityLimit" modified="No">5.000000e-01</Option>
    <Option name="SeparationType" modified="No">giniindex</Option>
    <Option name="DoBoostMonitor" modified="No">False</Option>
    <Option name="UseFisherCuts" modified="No">False</Option>
    <Option name="MinLinCorrForFisher" modified="No">8.000000e-01</Option>
    <Option name="UseExclusiveVars" modified="No">False</Option>
    <Option name="DoPreselection" modified="No">False</Option>
    <Option name="SigToBkgFraction" modified="No">1.000000e+00</Option>
    <Option name="PruneMethod" modified="No">nopruning</Option>
    <Option name="PruneStrength" modified="No">0.000000e+00</Option>
    <Option name="PruningValFraction" modified="No">5.000000e-01</Option>
    <Option name="nEventsMin" modified="No">0</Option>
    <Option name="UseBaggedGrad" modified="No">False</Option>
    <Option name="GradBaggingFraction" modified="No">5.000000e-01</Option>
    <Option name="UseNTrainEvents" modified="No">0</Option>
    <Option name="NNodesMax" modified="No">0</Option>
  </Options>
  <Variables NVar="5">
    <Variable VarIndex="0" Expression="(log10(DlxyBS/sqrt(DlxyBSErr)))" Label="(log10(DlxyBS/sqrt(DlxyBSErr)))" Title="(log10(DlxyBS/sqrt(DlxyBSErr)))" Unit="" Internal="_log10_DlxyBS_D_sqrt_DlxyBSErr___" Type="F" Min="3.01030099e-01" Max="3.73793817e+00"/>
    <Variable VarIndex="1" Expression="Dchi2cl" Label="Dchi2cl" Title="Dchi2cl" Unit="" Internal="Dchi2cl" Type="F" Min="5.00020646e-02" Max="9.99989569e-01"/>
    <Variable VarIndex="2" Expression="alpha_BS_2D_correction" Label="alpha_BS_2D_correction" Title="alpha_BS_2D_correction" Unit="" Internal="alpha_BS_2D_correction" Type="F" Min="1.33288370e-06" Max="3.14158916e+00"/>
    <Variable VarIndex="3" Expression="kaon_pt/Dpt" Label="kaon_pt/Dpt" Title="kaon_pt/Dpt" Unit="" Internal="kaon_pt_D_Dpt" Type="F" Min="5.66746742e-02" Max="7.72947013e-01"/>
    <Variable VarIndex="4" Expression="proton_pt/Dpt" Label="proton_pt/Dpt" Title="proton_pt/Dpt" Unit="" Internal="proton_pt_D_Dpt" Type="F" Min="1.24885231e-01" Max="9.71658111e-01"/>
  </Variables>
  <Spectators NSpec="0"/>
  <Classes NClass="2">
    <Class Name="Signal" Index="0"/>
    <Class Name="Background" Index="1"/>
  </Classes>
  <Transformations NTransformations="0"/>
  <MVAPdfs/>
  <Weights NTrees="1000" AnalysisType="1">
    <BinaryTree type="DecisionTree" boostWeight="1.0000000000000000e+00" itree="0">
      <Node pos="s" depth="0" NCoef="0" IVar="2" Cut="2.9920017719268799e-01" cType="1" res="1.6673763748258352e-03" rms="4.9999722838401794e-01" purity="5.0166738033294678e-01" nType="0">
        <Node pos="l" depth="1" NCoef="0" IVar="4" Cut="2.7060011029243469e-01" cType="1" res="2.9519537091255188e-01" rms="4.0355879068374634e-01" purity="7.9519534111022949e-01" nType="0">
          <Node pos="l" depth="2" NCoef="0" IVar="-1" Cut="0.0000000000000000e+00" cType="1" res="1.5163783682510257e-03" rms="4.9287480115890503e-01" purity="5.8410954475402832e-01" nType="-99"/>
          <Node pos="r" depth="2" NCoef="0" IVar="-1" Cut="0.0000000000000000e+00" cType="1" res="4.2482619173824787e-03" rms="3.7615430355072021e-01" purity="8.2940542697906494e-01" nType="-99"/>
        </Node>
        <Node pos="r" depth="1" NCoef="0" IVar="2" Cut="7.0525616407394409e-01" cType="1" res="-3.6423808336257935e-01" rms="3.4253558516502380e-01" purity="1.3576193153858185e-01" nType="0">
          <Node pos="l" depth="2" NCoef="0" IVar="-1" Cut="0.0000000000000000e+00" cType="1" res="-3.9851032197475433e-03" rms="4.8073545098304749e-01" purity="3.6254665255546570e-01" nType="-99"/>
          <Node pos="r" depth="2" NCoef="0" IVar="-1" Cut="0.0000000000000000e+00" cType="1" res="-3.7066936492919922e-02" rms="2.8909796476364136e-01" purity="9.2051021754741669e-02" nType="-99"/>
        </Node>
      </Node>
    </BinaryTree>
    <BinaryTree type="DecisionTree" boostWeight="1.0000000000000000e+00" itree="1">
      <Node pos="s" depth="0" NCoef="0" IVar="2" Cut="2.9920566082000732e-01" cType="1" res="2.7946408372372389e-03" rms="4.9364569783210754e-01" purity="4.9675512313842773e-01" nType="0">
        <Node pos="l" depth="1" NCoef="0" IVar="4" Cut="2.7200403809547424e-01" cType="1" res="2.9023241996765137e-01" rms="4.0564891695976257e-01" purity="7.9217392206192017e-01" nType="0">
          <Node pos="l" depth="2" NCoef="0" IVar="-1" Cut="0.0000000000000000e+00" cType="1" res="1.1905608698725700e-03" rms="4.9572271108627319e-01" purity="5.6522250175476074e-01" nType="-99"/>
          <Node pos="r" depth="2" NCoef="0" IVar="-1" Cut="0.0000000000000000e+00" cType="1" res="4.1830968111753464e-03" rms="3.7749794125556946e-01" purity="8.2786476612091064e-01" nType="-99"/>
        </Node>
        <Node pos="r" depth="1" NCoef="0" IVar="2" Cut="5.6991714239120483e-01" cType="1" res="-3.4814447164535522e-01" rms="3.4098729491233826e-01" purity="1.3607177138328552e-01" nType="0">
          <Node pos="l" depth="2" NCoef="0" IVar="-1" Cut="0.0000000000000000e+00" cType="1" res="-2.3785016965121031e-03" rms="4.9096176028251648e-01" purity="4.0536108613014221e-01" nType="-99"/>
          <Node pos="r" depth="2" NCoef="0" IVar="-1" Cut="0.0000000000000000e+00" cType="1" res="-3.5217478871345520e-02" rms="2.9090654850006104e-01" purity="9.3539230525493622e-02" nType="-99"/>
        </Node>
      </Node>
    </BinaryTree>
    <BinaryTree type="DecisionTree" boostWeight="1.0000000000000000e+00" itree="2">
      <Node pos="s" depth="0" NCoef="0" IVar="2" Cut="2.9920199513435364e-01" cType="1" res="9.3829743564128876e-03" rms="4.8763656616210938e-01" purity="4.9751493334770203e-01" nType="0">
        <Node pos="l" depth="1" NCoef="0" IVar="4" Cut="2.9114314913749695e-01" cType="1" res="2.8801184892654419e-01" rms="4.0578234195709229e-01" purity="7.9183185100555420e-01" nType="0">
          <Node pos="l" depth="2" NCoef="0" IVar="-1" Cut="0.0000000000000000e+00" cType="1" res="1.7731696134433150e-03" rms="4.8907819390296936e-01" purity="6.0321152210235596e-01" nType="-99"/>
          <Node pos="r" depth="2" NCoef="0" IVar="-1" Cut="0.0000000000000000e+00" cType="1" res="4.2030038312077522e-03" rms="3.7376666069030762e-01" purity="8.3211219310760498e-01" nType="-99"/>
        </Node>
        <Node pos="r" depth="1" NCoef="0" IVar="2" Cut="7.0527917146682739e-01" cType="1" res="-3.3311763405799866e-01" rms="3.3903741836547852e-01" purity="1.3573002815246582e-01" nType="0">
          <Node pos="l" depth="2" NCoef="0" IVar="-1" Cut="0.0000000000000000e+00" cType="1" res="-3.1499792821705341e-03" rms="4.8400184512138367e-01" purity="3.7714266777038574e-01" nType="-99"/>
          <Node pos="r" depth="2" NCoef="0" IVar="-1" Cut="0.0000000000000000e+00" cType="1" res="-3.5375047475099564e-02" rms="2.8397744894027710e-01" purity="8.8470146059989929e-02" nType="-99"/>
        </Node>
      </Node>
    </BinaryTree>
    <BinaryTree type="DecisionTree" boostWeight="1.0000000000000000e+00" itree="3">
      <Node pos="s" depth="0" NCoef="0" IVar="2" Cut="2.9920569062232971e-01" cType="1" res="1.6147289425134659e-02" rms="4.8194399476051331e-01" purity="4.9849659204483032e-01" nType="0">
        <Node pos="l" depth="1" NCoef="0" IVar="4" Cut="2.8892052173614502e-01" cType="1" res="2.8679624199867249e-01" rms="4.0514796972274780e-01" purity="7.9254174232482910e-01" nType="0">
          <Node pos="l" depth="2" NCoef="0" IVar="-1" Cut="0.0000000000000000e+00" cType="1" res="1.3109459541738033e-03" rms="4.9420514702796936e-01" purity="5.7470822334289551e-01" nType="-99"/>
          <Node pos="r" depth="2" NCoef="0" IVar="-1" Cut="0.0000000000000000e+00" cType="1" res="4.1933152824640274e-03" rms="3.7123501300811768e-01" purity="8.3493804931640625e-01" nType="-99"/>
        </Node>
        <Node pos="r" depth="1" NCoef="0" IVar="2" Cut="5.6992864608764648e-01" cType="1" res="-3.1243315339088440e-01" rms="3.4363070130348206e-01" purity="1.4151208102703094e-01" nType="0">
          <Node pos="l" depth="2" NCoef="0" IVar="-1" Cut="0.0000000000000000e+00" cType="1" res="-2.1606662776321173e-03" rms="4.9187862873077393e-01" purity="4.1024807095527649e-01" nType="-99"/>
          <Node pos="r" depth="2" NCoef="0" IVar="-1" Cut="0.0000000000000000e+00" cType="1" res="-3.0302131548523903e-02" rms="2.9816108942031860e-01" purity="9.8845481872558594e-02" nType="-99"/>
        </Node>
      </Node>
    </BinaryTree>
    <BinaryTree type="DecisionTree" boostWeight="1.0000000000000000e+00" itree="4">
      <Node pos="s" depth="0" NCoef="0" IVar="2" Cut="2.9921942949295044e-01" cType="1" res="2.0047293975949287e-02" rms="4.7688677906990051e-01" purity="4.9754410982131958e-01" nType="0">
        <Node pos="l" depth="1" NCoef="0" IVar="4" Cut="2.6942229270935059e-01" cType="1" res="2.8418913483619690e-01" rms="4.0560173988342285e-01" purity="7.9176419973373413e-01" nType="0">
          <Node pos="l" depth="2" NCoef="0" IVar="-1" Cut="0.0000000000000000e+00" cType="1" res="1.0227686725556850e-03" rms="4.9675038456916809e-01" purity="5.5691260099411011e-01" nType="-99"/>
          <Node pos="r" depth="2" NCoef="0" IVar="-1" Cut="0.0000000000000000e+00" cType="1" res="4.1110548190772533e-03" rms="3.7750330567359924e-01" purity="8.2781136035919189e-01" nType="-99"/>
        </Node>
        <Node pos="r" depth="1" NCoef="0" IVar="2" Cut="5.6992542743682861e-01" cType="1" res="-3.0255097150802612e-01" rms="3.3907216787338257e-01" purity="1.3821101188659668e-01" nType="0">
          <Node pos="l" depth="2" NCoef="0" IVar="-1" Cut="0.0000000000000000e+00" cType="1" res="-2.2500909399241209e-03" rms="4.9112427234649658e-01" purity="4.0620797872543335e-01" nType="-99"/>
          <Node pos="r" depth="2" NCoef="0" IVar="-1" Cut="0.0000000000000000e+00" cType="1" res="-3.0092827975749969e-02" rms="2.9482075572013855e-01" purity="9.6326544880867004e-02" nType="-99"/>
        </Node>
      </Node>
    </BinaryTree>
    <BinaryTree type="DecisionTree" boostWeight="1.0000000000000000e+00" itree="5">
      <Node pos="s" depth="0" NCoef="0" IVar="2" Cut="2.9920524358749390e-01" cType="1" res="3.0681509524583817e-02" rms="4.7216898202896118e-01" purity="5.0384086370468140e-01" nType="0">
        <Node pos="l" depth="1" NCoef="0" IVar="4" Cut="2.3123197257518768e-01" cType="1" res="2.8598955273628235e-01" rms="4.0283533930778503e-01" purity="7.9541987180709839e-01" nType="0">
          <Node pos="l" depth="2" NCoef="0" IVar="-1" Cut="0.0000000000000000e+00" cType="1" res="-1.4402081724256277e-03" rms="4.9673202633857727e-01" purity="4.4292709231376648e-01" nType="-99"/>
          <Node pos="r" depth="2" NCoef="0" IVar="-1" Cut="0.0000000000000000e+00" cType="1" res="4.0264278650283813e-03" rms="3.8357481360435486e-01" purity="8.2048112154006958e-01" nType="-99"/>
        </Node>
        <Node pos="r" depth="1" NCoef="0" IVar="2" Cut="7.0527547597885132e-01" cType="1" res="-2.8898289799690247e-01" rms="3.3927145600318909e-01" purity="1.3876256346702576e-01" nType="0">
          <Node pos="l" depth="2" NCoef="0" IVar="-1" Cut="0.0000000000000000e+00" cType="1" res="-3.6708619445562363e-03" rms="4.7785520553588867e-01" purity="3.5765257477760315e-01" nType="-99"/>
          <Node pos="r" depth="2" NCoef="0" IVar="-1" Cut="0.0000000000000000e+00" cType="1" res="-2.8981160372495651e-02" rms="2.9588118195533752e-01" purity="9.6943773329257965e-02" nType="-99"/>
        </Node>
      </Node>
    </BinaryTree>
    <BinaryTree type="DecisionTree" boostWeight="1.0000000000000000e+00" itree="6">
      <Node pos="s" depth="0" NCoef="0" IVar="2" Cut="2.9920536279678345e-01" cType="1" res="3.1491618603467941e-02" rms="4.6739748120307922e-01" purity="5.0030320882797241e-01" nType="0">
        <Node pos="l" depth="1" NCoef="0" IVar="4" Cut="2.4606133997440338e-01" cType="1" res="2.8163209557533264e-01" rms="4.0460160374641418e-01" purity="7.9283189773559570e-01" nType="0">
          <Node pos="l" depth="2" NCoef="0" IVar="-1" Cut="0.0000000000000000e+00" cType="1" res="3.4275819780305028e-04" rms="4.9943810701370239e-01" purity="5.2029556035995483e-01" nType="-99"/>
          <Node pos="r" depth="2" NCoef="0" IVar="-1" Cut="0.0000000000000000e+00" cType="1" res="4.0163868106901646e-03" rms="3.8293918967247009e-01" purity="8.2133454084396362e-01" nType="-99"/>
        </Node>
        <Node pos="r" depth="1" NCoef="0" IVar="2" Cut="7.0527881383895874e-01" cType="1" res="-2.8044399619102478e-01" rms="3.3378779888153076e-01" purity="1.3550773262977600e-01" nType="0">
          <Node pos="l" depth="2" NCoef="0" IVar="-1" Cut="0.0000000000000000e+00" cType="1" res="-3.0112881213426590e-03" rms="4.8275703191757202e-01" purity="3.7614545226097107e-01" nType="-99"/>
          <Node pos="r" depth="2" NCoef="0" IVar="-1" Cut="0.0000000000000000e+00" cType="1" res="-3.0805129557847977e-02" rms="2.8384140133857727e-01" purity="8.8376298546791077e-02" nType="-99"/>
        </Node>
      </Node>
    </BinaryTree>
    <BinaryTree type="DecisionTree" boostWeight="1.0000000000000000e+00" itree="7">
      <Node pos="s" depth="0" NCoef="0" IVar="2" Cut="2.9920202493667603e-01" cType="1" res="3.5819102078676224e-02" rms="4.6281385421752930e-01" purity="4.9990457296371460e-01" nType="0">
        <Node pos="l" depth="1" NCoef="0" IVar="4" Cut="2.4606133997440338e-01" cType="1" res="2.8021967411041260e-01" rms="4.0410438179969788e-01" purity="7.9331201314926147e-01" nType="0">
          <Node pos="l" depth="2" NCoef="0" IVar="-1" Cut="0.0000000000000000e+00" cType="1" res="-1.0312078666174784e-04" rms="4.9981763958930969e-01" purity="4.9858960509300232e-01" nType="-99"/>
          <Node pos="r" depth="2" NCoef="0" IVar="-1" Cut="0.0000000000000000e+00" cType="1" res="4.0113581344485283e-03" rms="3.8164520263671875e-01" purity="8.2286304235458374e-01" nType="-99"/>
        </Node>
        <Node pos="r" depth="1" NCoef="0" IVar="2" Cut="5.6990575790405273e-01" cType="1" res="-2.6676163077354431e-01" rms="3.3421990275382996e-01" purity="1.3665074110031128e-01" nType="0">
          <Node pos="l" depth="2" NCoef="0" IVar="-1" Cut="0.0000000000000000e+00" cType="1" res="-2.1879379637539387e-03" rms="4.9057248234748840e-01" purity="4.0336039662361145e-01" nType="-99"/>
          <Node pos="r" depth="2" NCoef="0" IVar="-1" Cut="0.0000000000000000e+00" cType="1" res="-2.7814771980047226e-02" rms="2.9223912954330444e-01" purity="9.4560481607913971e-02" nType="-99"/>
        </Node>
      </Node>
    </BinaryTree>
    <BinaryTree type="DecisionTree" boostWeight="1.0000000000000000e+00" itree="8">
      <Node pos="s" depth="0" NCoef="0" IVar="2" Cut="2.9920017719268799e-01" cType="1" res="3.3713839948177338e-02" rms="4.5876926183700562e-01" purity="4.9305987358093262e-01" nType="0">
        <Node pos="l" depth="1" NCoef="0" IVar="4" Cut="2.7488356828689575e-01" cType="1" res="2.7398768067359924e-01" rms="4.0714582800865173e-01" purity="7.8889310359954834e-01" nType="0">
          <Node pos="l" depth="2" NCoef="0" IVar="-1" Cut="0.0000000000000000e+00" cType="1" res="1.0446400847285986e-03" rms="4.9546235799789429e-01" purity="5.6223660707473755e-01" nType="-99"/>
          <Node pos="r" depth="2" NCoef="0" IVar="-1" Cut="0.0000000000000000e+00" cType="1" res="3.9815953932702541e-03" rms="3.7879878282546997e-01" purity="8.2633209228515625e-01" nType="-99"/>
        </Node>
        <Node pos="r" depth="1" NCoef="0" IVar="2" Cut="4.3455249071121216e-01" cType="1" res="-2.6093080639839172e-01" rms="3.2813906669616699e-01" purity="1.3028348982334137e-01" nType="0">
          <Node pos="l" depth="2" NCoef="0" IVar="-1" Cut="0.0000000000000000e+00" cType="1" res="-1.9566884730011225e-03" rms="4.9233853816986084e-01" purity="4.1279321908950806e-01" nType="-99"/>
          <Node pos="r" depth="2" NCoef="0" IVar="-1" Cut="0.0000000000000000e+00" cType="1" res="-2.4520982056856155e-02" rms="3.0209115147590637e-01" purity="1.0335998982191086e-01" nType="-99"/>
        </Node>
      </Node>
    </BinaryTree>
    <BinaryTree type="DecisionTree" boostWeight="1.0000000000000000e+00" itree="9">
      <Node pos="s" depth="0" NCoef="0" IVar="2" Cut="2.9920014739036560e-01" cType="1" res="4.5223437249660492e-02" rms="4.5441207289695740e-01" purity="5.0197190046310425e-01" nType="0">
        <Node pos="l" depth="1" NCoef="0" IVar="4" Cut="2.4606133997440338e-01" cType="1" res="2.7944061160087585e-01" rms="4.0184178948402405e-01" purity="7.9609578847885132e-01" nType="0">
          <Node pos="l" depth="2" NCoef="0" IVar="-1" Cut="0.0000000000000000e+00" cType="1" res="5.5890894145704806e-05" rms="4.9979251623153687e-01" purity="5.0673085451126099e-01" nType="-99"/>
          <Node pos="r" depth="2" NCoef="0" IVar="-1" Cut="0.0000000000000000e+00" cType="1" res="3.9661531336605549e-03" rms="3.7946540117263794e-01" purity="8.2539969682693481e-01" nType="-99"/>
        </Node>
        <Node pos="r" depth="1" NCoef="0" IVar="2" Cut="5.6990432739257812e-01" cType="1" res="-2.4990624189376831e-01" rms="3.2708483934402466e-01" purity="1.3135567307472229e-01" nType="0">
          <Node pos="l" depth="2" NCoef="0" IVar="-1" Cut="0.0000000000000000e+00" cType="1" res="-2.4000408593565226e-03" rms="4.8781004548072815e-01" purity="3.9299607276916504e-01" nType="-99"/>
          <Node pos="r" depth="2" NCoef="0" IVar="-1" Cut="0.0000000000000000e+00" cType="1" res="-2.7538860216736794e-02" rms="2.8642490506172180e-01" purity="9.0619482100009918e-02" nType="-99"/>
        </Node>
      </Node>
    </BinaryTree>
    <BinaryTree type="DecisionTree" boostWeight="1.0000000000000000e+00" itree="10">
      <Node pos="s" depth="0" NCoef="0" IVar="2" Cut="2.9920700192451477e-01" cType="1" res="5.0387982279062271e-02" rms="4.5150154829025269e-01" purity="5.0263315439224243e-01" nType="0">
        <Node pos="l" depth="1" NCoef="0" IVar="4" Cut="2.8650662302970886e-01" cType="1" res="2.7471661567687988e-01" rms="4.0387582778930664e-01" purity="7.9316830635070801e-01" nType="0">
          <Node pos="l" depth="2" NCoef="0" IVar="-1" Cut="0.0000000000000000e+00" cType="1" res="1.4579197159036994e-03" rms="4.9079334735870361e-01" purity="5.9062606096267700e-01" nType="-99"/>
          <Node pos="r" depth="2" NCoef="0" IVar="-1" Cut="0.0000000000000000e+00" cType="1" res="4.0102405473589897e-03" rms="3.7297642230987549e-01" purity="8.3299320936203003e-01" nType="-99"/>
        </Node>
        <Node pos="r" depth="1" NCoef="0" IVar="2" Cut="4.3456602096557617e-01" cType="1" res="-2.2688376903533936e-01" rms="3.3930286765098572e-01" purity="1.4352963864803314e-01" nType="0">
          <Node pos="l" depth="2" NCoef="0" IVar="-1" Cut="0.0000000000000000e+00" cType="1" res="-4.7860533231869340e-04" rms="4.9877837300300598e-01" purity="4.6506768465042114e-01" nType="-99"/>
          <Node pos="r" depth="2" NCoef="0" IVar="-1" Cut="0.0000000000000000e+00" cType="1" res="-2.1215809509158134e-02" rms="3.1070876121520996e-01" purity="1.1037400364875793e-01" nType="-99"/>
        </Node>
      </Node>
    </BinaryTree>
    <BinaryTree type="DecisionTree" boostWeight="1.0000000000000000e+00" itree="11">
      <Node pos="s" depth="0" NCoef="0" IVar="2" Cut="2.9920199513435364e-01" cType="1" res="5.1358528435230255e-02" rms="4.4725209474563599e-01" purity="5.0089955329895020e-01" nType="0">
        <Node pos="l" depth="1" NCoef="0" IVar="0" Cut="4.6375292539596558e-01" cType="1" res="2.7595573663711548e-01" rms="4.0161842107772827e-01" purity="7.9617726802825928e-01" nType="0">
          <Node pos="l" depth="2" NCoef="0" IVar="-1" Cut="0.0000000000000000e+00" cType="1" res="2.8842878527939320e-03" rms="4.5078241825103760e-01" purity="7.1367913484573364e-01" nType="-99"/>
          <Node pos="r" depth="2" NCoef="0" IVar="-1" Cut="0.0000000000000000e+00" cType="1" res="4.3992502614855766e-03" rms="3.2126915454864502e-01" purity="8.8224232196807861e-01" nType="-99"/>
        </Node>
        <Node pos="r" depth="1" NCoef="0" IVar="2" Cut="4.3455401062965393e-01" cType="1" res="-2.2899344563484192e-01" rms="3.2683980464935303e-01" purity="1.3232107460498810e-01" nType="0">
          <Node pos="l" depth="2" NCoef="0" IVar="-1" Cut="0.0000000000000000e+00" cType="1" res="-7.2267313953489065e-04" rms="4.9793881177902222e-01" purity="4.5463618636131287e-01" nType="-99"/>
          <Node pos="r" depth="2" NCoef="0" IVar="-1" Cut="0.0000000000000000e+00" cType="1" res="-2.3401038721203804e-02" rms="2.9697099328041077e-01" purity="9.9690802395343781e-02" nType="-99"/>
        </Node>
      </Node>
    </BinaryTree>
    <BinaryTree type="DecisionTree" boostWeight="1.0000000000000000e+00" itree="12">
      <Node pos="s" depth="0" NCoef="0" IVar="2" Cut="2.9921153187751770e-01" cType="1" res="6.0425214469432831e-02" rms="4.4454595446586609e-01" purity="5.0692003965377808e-01" nType="0">
        <Node pos="l" depth="1" NCoef="0" IVar="4" Cut="2.4617554247379303e-01" cType="1" res="2.7537959814071655e-01" rms="4.0052965283393860e-01" purity="7.9745858907699585e-01" nType="0">
          <Node pos="l" depth="2" NCoef="0" IVar="-1" Cut="0.0000000000000000e+00" cType="1" res="1.7213087994605303e-04" rms="4.9951484799385071e-01" purity="5.1496493816375732e-01" nType="-99"/>
          <Node pos="r" depth="2" NCoef="0" IVar="-1" Cut="0.0000000000000000e+00" cType="1" res="3.9044951554387808e-03" rms="3.7857681512832642e-01" purity="8.2628190517425537e-01" nType="-99"/>
        </Node>
        <Node pos="r" depth="1" NCoef="0" IVar="2" Cut="4.3457424640655518e-01" cType="1" res="-2.0663879811763763e-01" rms="3.3927246928215027e-01" purity="1.4594858884811401e-01" nType="0">
          <Node pos="l" depth="2" NCoef="0" IVar="-1" Cut="0.0000000000000000e+00" cType="1" res="-3.3156276913359761e-05" rms="4.9975359439849854e-01" purity="4.8430466651916504e-01" nType="-99"/>
          <Node pos="r" depth="2" NCoef="0" IVar="-1" Cut="0.0000000000000000e+00" cType="1" res="-2.0081104710698128e-02" rms="3.0996355414390564e-01" purity="1.1040495336055756e-01" nType="-99"/>
        </Node>
      </Node>
    </BinaryTree>
    <BinaryTree type="DecisionTree" boostWeight="1.0000000000000000e+00" itree="13">
      <Node pos="s" depth="0" NCoef="0" IVar="2" Cut="2.9920017719268799e-01" cType="1" res="5.7939223945140839e-02" rms="4.4170147180557251e-01" purity="5.0120258331298828e-01" nType="0">
        <Node pos="l" depth="1" NCoef="0" IVar="4" Cut="2.6945579051971436e-01" cType="1" res="2.7010038495063782e-01" rms="4.0296190977096558e-01" purity="7.9395836591720581e-01" nType="0">
          <Node pos="l" depth="2" NCoef="0" IVar="-1" Cut="0.0000000000000000e+00" cType="1" res="7.7699532266706228e-04" rms="4.9674677848815918e-01" purity="5.4996114969253540e-01" nType="-99"/>
          <Node pos="r" depth="2" NCoef="0" IVar="-1" Cut="0.0000000000000000e+00" cType="1" res="3.9204540662467480e-03" rms="3.7518969178199768e-01" purity="8.3035498857498169e-01" nType="-99"/>
        </Node>
        <Node pos="r" depth="1" NCoef="0" IVar="2" Cut="7.0528179407119751e-01" cType="1" res="-2.0314291119575500e-01" rms="3.3438283205032349e-01" purity="1.4094200730323792e-01" nType="0">
          <Node pos="l" depth="2" NCoef="0" IVar="-1" Cut="0.0000000000000000e+00" cType="1" res="-1.8223451916128397e-03" rms="4.8182824254035950e-01" purity="3.8701191544532776e-01" nType="-99"/>
          <Node pos="r" depth="2" NCoef="0" IVar="-1" Cut="0.0000000000000000e+00" cType="1" res="-2.4260591715574265e-02" rms="2.8917154669761658e-01" purity="9.2103175818920135e-02" nType="-99"/>
        </Node>
      </Node>
    </BinaryTree>
    <BinaryTree type="DecisionTree" boostWeight="1.0000000000000000e+00" itree="14">
      <Node pos="s" depth="0" NCoef="0" IVar="2" Cut="2.9919874668121338e-01" cType="1" res="6.2441233545541763e-02" rms="4.3774926662445068e-01" purity="5.0358963012695312e-01" nType="0">
        <Node pos="l" depth="1" NCoef="0" IVar="4" Cut="2.4606133997440338e-01" cType="1" res="2.7234250307083130e-01" rms="3.9996507763862610e-01" purity="7.9792129993438721e-01" nType="0">
          <Node pos="l" depth="2" NCoef="0" IVar="-1" Cut="0.0000000000000000e+00" cType="1" res="9.2306705482769758e-05" rms="4.9959751963615417e-01" purity="5.1154923439025879e-01" nType="-99"/>
          <Node pos="r" depth="2" NCoef="0" IVar="-1" Cut="0.0000000000000000e+00" cType="1" res="3.8656173273921013e-03" rms="3.7800413370132446e-01" purity="8.2693988084793091e-01" nType="-99"/>
        </Node>
        <Node pos="r" depth="1" NCoef="0" IVar="2" Cut="4.3455177545547485e-01" cType="1" res="-2.0209331810474396e-01" rms="3.2559272646903992e-01" purity="1.3264907896518707e-01" nType="0">
          <Node pos="l" depth="2" NCoef="0" IVar="-1" Cut="0.0000000000000000e+00" cType="1" res="-5.8473140234127641e-04" rms="4.9831926822662354e-01" purity="4.5901709794998169e-01" nType="-99"/>
          <Node pos="r" depth="2" NCoef="0" IVar="-1" Cut="0.0000000000000000e+00" cType="1" res="-2.1847473457455635e-02" rms="2.9658603668212891e-01" purity="9.9284134805202484e-02" nType="-99"/>
        </Node>
      </Node>
    </BinaryTree>
    <BinaryTree type="DecisionTree" boostWeight="1.0000000000000000e+00" itree="15">
      <Node pos="s" depth="0" NCoef="0" IVar="2" Cut="2.9920017719268799e-01" cType="1" res="6.5496124327182770e-02" rms="4.3549281358718872e-01" purity="5.0342845916748047e-01" nType="0">
        <Node pos="l" depth="1" NCoef="0" IVar="4" Cut="2.8650662302970886e-01" cType="1" res="2.6881143450737000e-01" rms="4.0117478370666504e-01" purity="7.9615032672882080e-01" nType="0">
          <Node pos="l" depth="2" NCoef="0" IVar="-1" Cut="0.0000000000000000e+00" cType="1" res="1.4421326341107488e-03" rms="4.8947310447692871e-01" purity="5.9482520818710327e-01" nType="-99"/>
          <Node pos="r" depth="2" NCoef="0" IVar="-1" Cut="0.0000000000000000e+00" cType="1" res="3.9037778042256832e-03" rms="3.7051633000373840e-01" purity="8.3564478158950806e-01" nType="-99"/>
        </Node>
        <Node pos="r" depth="1" NCoef="0" IVar="2" Cut="4.3455249071121216e-01" cType="1" res="-1.8686608970165253e-01" rms="3.3211070299148560e-01" purity="1.4009173214435577e-01" nType="0">
          <Node pos="l" depth="2" NCoef="0" IVar="-1" Cut="0.0000000000000000e+00" cType="1" res="-1.4942152483854443e-04" rms="4.9950826168060303e-01" purity="4.7779294848442078e-01" nType="-99"/>
          <Node pos="r" depth="2" NCoef="0" IVar="-1" Cut="0.0000000000000000e+00" cType="1" res="-1.9732454791665077e-02" rms="3.0257177352905273e-01" purity="1.0393418371677399e-01" nType="-99"/>
        </Node>
      </Node>
    </BinaryTree>
    <BinaryTree type="DecisionTree" boostWeight="1.0000000000000000e+00" itree="16">
      <Node pos="s" depth="0" NCoef="0" IVar="2" Cut="2.9920655488967896e-01" cType="1" res="7.0770576596260071e-02" rms="4.3315941095352173e-01" purity="5.0656801462173462e-01" nType="0">
        <Node pos="l" depth="1" NCoef="0" IVar="0" Cut="4.6375438570976257e-01" cType="1" res="2.6861134171485901e-01" rms="3.9996838569641113e-01" purity="7.9770827293395996e-01" nType="0">
          <Node pos="l" depth="2" NCoef="0" IVar="-1" Cut="0.0000000000000000e+00" cType="1" res="2.8078269679099321e-03" rms="4.4855394959449768e-01" purity="7.1738171577453613e-01" nType="-99"/>
          <Node pos="r" depth="2" NCoef="0" IVar="-1" Cut="0.0000000000000000e+00" cType="1" res="4.2837527580559254e-03" rms="3.2177329063415527e-01" purity="8.8148558139801025e-01" nType="-99"/>
        </Node>
        <Node pos="r" depth="1" NCoef="0" IVar="2" Cut="4.3456581234931946e-01" cType="1" res="-1.7667743563652039e-01" rms="3.3470472693443298e-01" purity="1.4242629706859589e-01" nType="0">
          <Node pos="l" depth="2" NCoef="0" IVar="-1" Cut="0.0000000000000000e+00" cType="1" res="-3.4883228363469243e-04" rms="4.9903076887130737e-01" purity="4.6888062357902527e-01" nType="-99"/>
          <Node pos="r" depth="2" NCoef="0" IVar="-1" Cut="0.0000000000000000e+00" cType="1" res="-1.8087130039930344e-02" rms="3.0780395865440369e-01" purity="1.0836163908243179e-01" nType="-99"/>
        </Node>
      </Node>
    </BinaryTree>
    <BinaryTree type="DecisionTree" boostWeight="1.0000000000000000e+00" itree="17">
      <Node pos="s" depth="0" NCoef="0" IVar="2" Cut="2.9920566082000732e-01" cType="1" res="6.8491041660308838e-02" rms="4.3063831329345703e-01" purity="5.0153738260269165e-01" nType="0">
        <Node pos="l" depth="1" NCoef="0" IVar="2" Cut="1.4247767627239227e-01" cType="1" res="2.6489412784576416e-01" rms="4.0143877267837524e-01" purity="7.9562717676162720e-01" nType="0">
          <Node pos="l" depth="2" NCoef="0" IVar="-1" Cut="0.0000000000000000e+00" cType="1" res="3.9436197839677334e-03" rms="3.6334428191184998e-01" purity="8.4144395589828491e-01" nType="-99"/>
          <Node pos="r" depth="2" NCoef="0" IVar="-1" Cut="0.0000000000000000e+00" cType="1" res="1.9132986199110746e-03" rms="4.7612744569778442e-01" purity="6.4756911993026733e-01" nType="-99"/>
        </Node>
        <Node pos="r" depth="1" NCoef="0" IVar="2" Cut="5.6991714239120483e-01" cType="1" res="-1.7608496546745300e-01" rms="3.2840830087661743e-01" purity="1.3531452417373657e-01" nType="0">
          <Node pos="l" depth="2" NCoef="0" IVar="-1" Cut="0.0000000000000000e+00" cType="1" res="-1.5505806077271700e-03" rms="4.8808914422988892e-01" purity="3.9903607964515686e-01" nType="-99"/>
          <Node pos="r" depth="2" NCoef="0" IVar="-1" Cut="0.0000000000000000e+00" cType="1" res="-2.1205971017479897e-02" rms="2.9167315363883972e-01" purity="9.4124771654605865e-02" nType="-99"/>
        </Node>
      </Node>
    </BinaryTree>
    <BinaryTree type="DecisionTree" boostWeight="1.0000000000000000e+00" itree="18">
      <Node pos="s" depth="0" NCoef="0" IVar="2" Cut="2.9920202493667603e-01" cType="1" res="6.9733873009681702e-02" rms="4.2794114351272583e-01" purity="4.9994784593582153e-01" nType="0">
        <Node pos="l" depth="1" NCoef="0" IVar="4" Cut="2.3400892317295074e-01" cType="1" res="2.6147118210792542e-01" rms="4.0240347385406494e-01" purity="7.9408210515975952e-01" nType="0">
          <Node pos="l" depth="2" NCoef="0" IVar="-1" Cut="0.0000000000000000e+00" cType="1" res="-1.0616417275741696e-03" rms="4.9838587641716003e-01" purity="4.6354579925537109e-01" nType="-99"/>
          <Node pos="r" depth="2" NCoef="0" IVar="-1" Cut="0.0000000000000000e+00" cType="1" res="3.7365753669291735e-03" rms="3.8394337892532349e-01" purity="8.1947088241577148e-01" nType="-99"/>
        </Node>
        <Node pos="r" depth="1" NCoef="0" IVar="2" Cut="4.3457472324371338e-01" cType="1" res="-1.6459995508193970e-01" rms="3.3046442270278931e-01" purity="1.4046852290630341e-01" nType="0">
          <Node pos="l" depth="2" NCoef="0" IVar="-1" Cut="0.0000000000000000e+00" cType="1" res="4.8016750952228904e-05" rms="4.9979284405708313e-01" purity="4.8580470681190491e-01" nType="-99"/>
          <Node pos="r" depth="2" NCoef="0" IVar="-1" Cut="0.0000000000000000e+00" cType="1" res="-1.8401490524411201e-02" rms="3.0166834592819214e-01" purity="1.0378754138946533e-01" nType="-99"/>
        </Node>
      </Node>
    </BinaryTree>
    <BinaryTree type="DecisionTree" boostWeight="1.0000000000000000e+00" itree="19">
      <Node pos="s" depth="0" NCoef="0" IVar="2" Cut="2.9921272397041321e-01" cType="1" res="7.6336830854415894e-02" rms="4.2528882622718811e-01" purity="5.0593507289886475e-01" nType="0">
        <Node pos="l" depth="1" NCoef="0" IVar="4" Cut="2.4875949323177338e-01" cType="1" res="2.6392450928688049e-01" rms="3.9929455518722534e-01" purity="7.9820346832275391e-01" nType="0">
          <Node pos="l" depth="2" NCoef="0" IVar="-1" Cut="0.0000000000000000e+00" cType="1" res="1.0203627607552335e-04" rms="4.9890610575675964e-01" purity="5.1689898967742920e-01" nType="-99"/>
          <Node pos="r" depth="2" NCoef="0" IVar="-1" Cut="0.0000000000000000e+00" cType="1" res="3.7563731893897057e-03" rms="3.7738353013992310e-01" purity="8.2748854160308838e-01" nType="-99"/>
        </Node>
        <Node pos="r" depth="1" NCoef="0" IVar="2" Cut="4.3458038568496704e-01" cType="1" res="-1.5840853750705719e-01" rms="3.2947334647178650e-01" purity="1.4019332826137543e-01" nType="0">
          <Node pos="l" depth="2" NCoef="0" IVar="-1" Cut="0.0000000000000000e+00" cType="1" res="1.2089061783626676e-04" rms="4.9988240003585815e-01" purity="4.8928642272949219e-01" nType="-99"/>
          <Node pos="r" depth="2" NCoef="0" IVar="-1" Cut="0.0000000000000000e+00" cType="1" res="-1.7927104607224464e-02" rms="3.0020225048065186e-01" purity="1.0260013490915298e-01" nType="-99"/>
        </Node>
      </Node>
    </BinaryTree>
    <BinaryTree type="DecisionTree" boostWeight="1.0000000000000000e+00" itree="20">
      <Node pos="s" depth="0" NCoef="0" IVar="2" Cut="2.9919973015785217e-01" cType="1" res="7.4634730815887451e-02" rms="4.2373177409172058e-01" purity="5.0117141008377075e-01" nType="0">
        <Node pos="l" depth="1" NCoef="0" IVar="4" Cut="2.3596611618995667e-01" cType="1" res="2.6054736971855164e-01" rms="4.0054884552955627e-01" purity="7.9641789197921753e-01" nType="0">
          <Node pos="l" depth="2" NCoef="0" IVar="-1" Cut="0.0000000000000000e+00" cType="1" res="-2.6549529866315424e-04" rms="4.9967187643051147e-01" purity="4.9763399362564087e-01" nType="-99"/>
          <Node pos="r" depth="2" NCoef="0" IVar="-1" Cut="0.0000000000000000e+00" cType="1" res="3.6987126804888248e-03" rms="3.8244241476058960e-01" purity="8.2131552696228027e-01" nType="-99"/>
        </Node>
        <Node pos="r" depth="1" NCoef="0" IVar="2" Cut="7.0525687932968140e-01" cType="1" res="-1.5646976232528687e-01" rms="3.2699912786483765e-01" purity="1.3415592908859253e-01" nType="0">
          <Node pos="l" depth="2" NCoef="0" IVar="-1" Cut="0.0000000000000000e+00" cType="1" res="-2.3182290606200695e-03" rms="4.7064307332038879e-01" purity="3.5383704304695129e-01" nType="-99"/>
          <Node pos="r" depth="2" NCoef="0" IVar="-1" Cut="0.0000000000000000e+00" cType="1" res="-2.0358907058835030e-02" rms="2.8901180624961853e-01" purity="9.1989941895008087e-02" nType="-99"/>
        </Node>
      </Node>
    </BinaryTree>
    <BinaryTree type="DecisionTree" boostWeight="1.0000000000000000e+00" itree="21">
      <Node pos="s" depth="0" NCoef="0" IVar="2" Cut="2.9920014739036560e-01" cType="1" res="7.6418705284595490e-02" rms="4.2196339368820190e-01" purity="5.0072962045669556e-01" nType="0">
        <Node pos="l" depth="1" NCoef="0" IVar="0" Cut="4.6469283103942871e-01" cType="1" res="2.5600245594978333e-01" rms="4.0242621302604675e-01" purity="7.9361540079116821e-01" nType="0">
          <Node pos="l" depth="2" NCoef="0" IVar="-1" Cut="0.0000000000000000e+00" cType="1" res="2.6161817368119955e-03" rms="4.5125132799148560e-01" purity="7.1067595481872559e-01" nType="-99"/>
          <Node pos="r" depth="2" NCoef="0" IVar="-1" Cut="0.0000000000000000e+00" cType="1" res="4.1750599630177021e-03" rms="3.2240018248558044e-01" purity="8.8064861297607422e-01" nType="-99"/>
        </Node>
        <Node pos="r" depth="1" NCoef="0" IVar="2" Cut="4.3456602096557617e-01" cType="1" res="-1.4347045123577118e-01" rms="3.3156362175941467e-01" purity="1.4210923016071320e-01" nType="0">
          <Node pos="l" depth="2" NCoef="0" IVar="-1" Cut="0.0000000000000000e+00" cType="1" res="7.6560527304536663e-06" rms="4.9970650672912598e-01" purity="4.8286622762680054e-01" nType="-99"/>
          <Node pos="r" depth="2" NCoef="0" IVar="-1" Cut="0.0000000000000000e+00" cType="1" res="-1.6637474298477173e-02" rms="3.0379205942153931e-01" purity="1.0515436530113220e-01" nType="-99"/>
        </Node>
      </Node>
    </BinaryTree>
    <BinaryTree type="DecisionTree" boostWeight="1.0000000000000000e+00" itree="22">
      <Node pos="s" depth="0" NCoef="0" IVar="2" Cut="2.9920199513435364e-01" cType="1" res="7.6925091445446014e-02" rms="4.1990920901298523e-01" purity="4.9917790293693542e-01" nType="0">
        <Node pos="l" depth="1" NCoef="0" IVar="4" Cut="2.6576089859008789e-01" cType="1" res="2.5478571653366089e-01" rms="4.0182828903198242e-01" purity="7.9426032304763794e-01" nType="0">
          <Node pos="l" depth="2" NCoef="0" IVar="-1" Cut="0.0000000000000000e+00" cType="1" res="5.0036655738949776e-04" rms="4.9633118510246277e-01" purity="5.4331529140472412e-01" nType="-99"/>
          <Node pos="r" depth="2" NCoef="0" IVar="-1" Cut="0.0000000000000000e+00" cType="1" res="3.7099060136824846e-03" rms="3.7617528438568115e-01" purity="8.2889252901077271e-01" nType="-99"/>
        </Node>
        <Node pos="r" depth="1" NCoef="0" IVar="2" Cut="8.4063166379928589e-01" cType="1" res="-1.4237542450428009e-01" rms="3.2794144749641418e-01" purity="1.3534396886825562e-01" nType="0">
          <Node pos="l" depth="2" NCoef="0" IVar="-1" Cut="0.0000000000000000e+00" cType="1" res="-2.1811113692820072e-03" rms="4.6237638592720032e-01" purity="3.3652153611183167e-01" nType="-99"/>
          <Node pos="r" depth="2" NCoef="0" IVar="-1" Cut="0.0000000000000000e+00" cType="1" res="-1.9408652558922768e-02" rms="2.8743878006935120e-01" purity="9.0880282223224640e-02" nType="-99"/>
        </Node>
      </Node>
    </BinaryTree>
    <BinaryTree type="DecisionTree" boostWeight="1.0000000000000000e+00" itree="23">
      <Node pos="s" depth="0" NCoef="0" IVar="2" Cut="2.9920524358749390e-01" cType="1" res="7.4282661080360413e-02" rms="4.1779339313507080e-01" purity="4.9406301975250244e-01" nType="0">
        <Node pos="l" depth="1" NCoef="0" IVar="4" Cut="2.4875949323177338e-01" cType="1" res="2.4936357140541077e-01" rms="4.0438985824584961e-01" purity="7.9046154022216797e-01" nType="0">
          <Node pos="l" depth="2" NCoef="0" IVar="-1" Cut="0.0000000000000000e+00" cType="1" res="-6.4639508491382003e-04" rms="4.9883475899696350e-01" purity="4.8404306173324585e-01" nType="-99"/>
          <Node pos="r" depth="2" NCoef="0" IVar="-1" Cut="0.0000000000000000e+00" cType="1" res="3.6376125644892454e-03" rms="3.8224661350250244e-01" purity="8.2164227962493896e-01" nType="-99"/>
        </Node>
        <Node pos="r" depth="1" NCoef="0" IVar="2" Cut="4.3457448482513428e-01" cType="1" res="-1.3865083456039429e-01" rms="3.2455009222030640e-01" purity="1.3358294963836670e-01" nType="0">
          <Node pos="l" depth="2" NCoef="0" IVar="-1" Cut="0.0000000000000000e+00" cType="1" res="-6.6962983692064881e-04" rms="4.9769541621208191e-01" purity="4.5204931497573853e-01" nType="-99"/>
          <Node pos="r" depth="2" NCoef="0" IVar="-1" Cut="0.0000000000000000e+00" cType="1" res="-1.6635116189718246e-02" rms="2.9934480786323547e-01" purity="1.0138036310672760e-01" nType="-99"/>
        </Node>
      </Node>
    </BinaryTree>
    <BinaryTree type="DecisionTree" boostWeight="1.0000000000000000e+00" itree="24">
      <Node pos="s" depth="0" NCoef="0" IVar="2" Cut="2.9920697212219238e-01" cType="1" res="7.9268567264080048e-02" rms="4.1492915153503418e-01" purity="4.9899184703826904e-01" nType="0">
        <Node pos="l" depth="1" NCoef="0" IVar="4" Cut="2.4617554247379303e-01" cType="1" res="2.5298675894737244e-01" rms="4.0070423483848572e-01" purity="7.9554957151412964e-01" nType="0">
          <Node pos="l" depth="2" NCoef="0" IVar="-1" Cut="0.0000000000000000e+00" cType="1" res="-2.4242166546173394e-04" rms="4.9950113892555237e-01" purity="5.0118851661682129e-01" nType="-99"/>
          <Node pos="r" depth="2" NCoef="0" IVar="-1" Cut="0.0000000000000000e+00" cType="1" res="3.6354430485516787e-03" rms="3.7971925735473633e-01" purity="8.2462012767791748e-01" nType="-99"/>
        </Node>
        <Node pos="r" depth="1" NCoef="0" IVar="2" Cut="4.3457809090614319e-01" cType="1" res="-1.3717445731163025e-01" rms="3.1964722275733948e-01" purity="1.2949776649475098e-01" nType="0">
          <Node pos="l" depth="2" NCoef="0" IVar="-1" Cut="0.0000000000000000e+00" cType="1" res="-7.7293865615502000e-04" rms="4.9728852510452271e-01" purity="4.4799852371215820e-01" nType="-99"/>
          <Node pos="r" depth="2" NCoef="0" IVar="-1" Cut="0.0000000000000000e+00" cType="1" res="-1.7227260395884514e-02" rms="2.9355868697166443e-01" purity="9.7055785357952118e-02" nType="-99"/>
        </Node>
      </Node>
    </BinaryTree>
    <BinaryTree type="DecisionTree" boostWeight="1.0000000000000000e+00" itree="25">
      <Node pos="s" depth="0" NCoef="0" IVar="2" Cut="2.9921799898147583e-01" cType="1" res="7.9536743462085724e-02" rms="4.1387662291526794e-01" purity="4.9682134389877319e-01" nType="0">
        <Node pos="l" depth="1" NCoef="0" IVar="0" Cut="4.6294692158699036e-01" cType="1" res="2.4839483201503754e-01" rms="4.0272009372711182e-01" purity="7.9260188341140747e-01" nType="0">
          <Node pos="l" depth="2" NCoef="0" IVar="-1" Cut="0.0000000000000000e+00" cType="1" res="2.5064197834581137e-03" rms="4.5195537805557251e-01" purity="7.0840024948120117e-01" nType="-99"/>
          <Node pos="r" depth="2" NCoef="0" IVar="-1" Cut="0.0000000000000000e+00" cType="1" res="4.0728407911956310e-03" rms="3.2358512282371521e-01" purity="8.7937486171722412e-01" nType="-99"/>
        </Node>
        <Node pos="r" depth="1" NCoef="0" IVar="2" Cut="4.3457967042922974e-01" cType="1" res="-1.2792417407035828e-01" rms="3.2313385605812073e-01" purity="1.3342201709747314e-01" nType="0">
          <Node pos="l" depth="2" NCoef="0" IVar="-1" Cut="0.0000000000000000e+00" cType="1" res="-4.6462711179628968e-04" rms="4.9840915203094482e-01" purity="4.6022352576255798e-01" nType="-99"/>
          <Node pos="r" depth="2" NCoef="0" IVar="-1" Cut="0.0000000000000000e+00" cType="1" res="-1.6116287559270859e-02" rms="2.9719665646553040e-01" purity="9.9872410297393799e-02" nType="-99"/>
        </Node>
      </Node>
    </BinaryTree>
    <BinaryTree type="DecisionTree" boostWeight="1.0000000000000000e+00" itree="26">
      <Node pos="s" depth="0" NCoef="0" IVar="2" Cut="2.9920017719268799e-01" cType="1" res="8.6447723209857941e-02" rms="4.1246771812438965e-01" purity="5.0324875116348267e-01" nType="0">
        <Node pos="l" depth="1" NCoef="0" IVar="4" Cut="2.3415133357048035e-01" cType="1" res="2.5138601660728455e-01" rms="3.9917784929275513e-01" purity="7.9727149009704590e-01" nType="0">
          <Node pos="l" depth="2" NCoef="0" IVar="-1" Cut="0.0000000000000000e+00" cType="1" res="-1.2965297792106867e-03" rms="4.9771001935005188e-01" purity="4.5669472217559814e-01" nType="-99"/>
          <Node pos="r" depth="2" NCoef="0" IVar="-1" Cut="0.0000000000000000e+00" cType="1" res="3.5832829307764769e-03" rms="3.8067692518234253e-01" purity="8.2310712337493896e-01" nType="-99"/>
        </Node>
        <Node pos="r" depth="1" NCoef="0" IVar="4" Cut="3.3860591053962708e-01" cType="1" res="-1.1985356360673904e-01" rms="3.2716074585914612e-01" purity="1.3549140095710754e-01" nType="0">
          <Node pos="l" depth="2" NCoef="0" IVar="-1" Cut="0.0000000000000000e+00" cType="1" res="-2.0411539822816849e-02" rms="2.7382877469062805e-01" purity="8.4544777870178223e-02" nType="-99"/>
          <Node pos="r" depth="2" NCoef="0" IVar="-1" Cut="0.0000000000000000e+00" cType="1" res="-7.2552552446722984e-03" rms="3.4807515144348145e-01" purity="1.6017857193946838e-01" nType="-99"/>
        </Node>
      </Node>
    </BinaryTree>
    <BinaryTree type="DecisionTree" boostWeight="1.0000000000000000e+00" itree="27">
      <Node pos="s" depth="0" NCoef="0" IVar="2" Cut="2.9920524358749390e-01" cType="1" res="8.3177700638771057e-02" rms="4.1106301546096802e-01" purity="4.9809715151786804e-01" nType="0">
        <Node pos="l" depth="1" NCoef="0" IVar="4" Cut="2.8637227416038513e-01" cType="1" res="2.4612475931644440e-01" rms="4.0195629000663757e-01" purity="7.9343330860137939e-01" nType="0">
          <Node pos="l" depth="2" NCoef="0" IVar="-1" Cut="0.0000000000000000e+00" cType="1" res="1.1929166503250599e-03" rms="4.8846423625946045e-01" purity="5.9260350465774536e-01" nType="-99"/>
          <Node pos="r" depth="2" NCoef="0" IVar="-1" Cut="0.0000000000000000e+00" cType="1" res="3.6351704038679600e-03" rms="3.7257701158523560e-01" purity="8.3302408456802368e-01" nType="-99"/>
        </Node>
        <Node pos="r" depth="1" NCoef="0" IVar="2" Cut="5.6994789838790894e-01" cType="1" res="-1.1796408891677856e-01" rms="3.2384985685348511e-01" purity="1.3353431224822998e-01" nType="0">
          <Node pos="l" depth="2" NCoef="0" IVar="-1" Cut="0.0000000000000000e+00" cType="1" res="-9.6882594516500831e-04" rms="4.8541650176048279e-01" purity="3.9954122900962830e-01" nType="-99"/>
          <Node pos="r" depth="2" NCoef="0" IVar="-1" Cut="0.0000000000000000e+00" cType="1" res="-1.7073979601264000e-02" rms="2.8827956318855286e-01" purity="9.1677129268646240e-02" nType="-99"/>
        </Node>
      </Node>
    </BinaryTree>
    <BinaryTree type="DecisionTree" boostWeight="1.0000000000000000e+00" itree="28">
      <Node pos="s" depth="0" NCoef="0" IVar="2" Cut="2.9919853806495667e-01" cType="1" res="8.8852956891059875e-02" rms="4.1021016240119934e-01" purity="5.0341379642486572e-01" nType="0">
        <Node pos="l" depth="1" NCoef="0" IVar="2" Cut="1.2822581827640533e-01" cType="1" res="2.4647413194179535e-01" rms="4.0042549371719360e-01" purity="7.9543787240982056e-01" nType="0">
          <Node pos="l" depth="2" NCoef="0" IVar="-1" Cut="0.0000000000000000e+00" cType="1" res="3.7698440719395876e-03" rms="3.5851263999938965e-01" purity="8.4543162584304810e-01" nType="-99"/>
          <Node pos="r" depth="2" NCoef="0" IVar="-1" Cut="0.0000000000000000e+00" cType="1" res="1.8962942995131016e-03" rms="4.6851634979248047e-01" purity="6.6691225767135620e-01" nType="-99"/>
        </Node>
        <Node pos="r" depth="1" NCoef="0" IVar="2" Cut="8.4062647819519043e-01" cType="1" res="-1.0795548558235168e-01" rms="3.2927411794662476e-01" purity="1.3878768682479858e-01" nType="0">
          <Node pos="l" depth="2" NCoef="0" IVar="-1" Cut="0.0000000000000000e+00" cType="1" res="-1.3601930113509297e-03" rms="4.6214619278907776e-01" purity="3.4516155719757080e-01" nType="-99"/>
          <Node pos="r" depth="2" NCoef="0" IVar="-1" Cut="0.0000000000000000e+00" cType="1" res="-1.6573263332247734e-02" rms="2.8871604800224304e-01" purity="9.1869838535785675e-02" nType="-99"/>
        </Node>
      </Node>
    </BinaryTree>
    <BinaryTree type="DecisionTree" boostWeight="1.0000000000000000e+00" itree="29">
      <Node pos="s" depth="0" NCoef="0" IVar="2" Cut="2.9919892549514771e-01" cType="1" res="8.7486676871776581e-02" rms="4.0784859657287598e-01" purity="5.0034791231155396e-01" nType="0">
        <Node pos="l" depth="1" NCoef="0" IVar="0" Cut="4.6469488739967346e-01" cType="1" res="2.4381683766841888e-01" rms="4.0124833583831787e-01" purity="7.9428189992904663e-01" nType="0">
          <Node pos="l" depth="2" NCoef="0" IVar="-1" Cut="0.0000000000000000e+00" cType="1" res="2.4799250531941652e-03" rms="4.4911867380142212e-01" purity="7.1404463052749634e-01" nType="-99"/>
          <Node pos="r" depth="2" NCoef="0" IVar="-1" Cut="0.0000000000000000e+00" cType="1" res="4.0082391351461411e-03" rms="3.2239276170730591e-01" purity="8.8027328252792358e-01" nType="-99"/>
        </Node>
        <Node pos="r" depth="1" NCoef="0" IVar="2" Cut="7.0525568723678589e-01" cType="1" res="-1.0556588321924210e-01" rms="3.2478594779968262e-01" purity="1.3736788928508759e-01" nType="0">
          <Node pos="l" depth="2" NCoef="0" IVar="-1" Cut="0.0000000000000000e+00" cType="1" res="-5.5255420738831162e-04" rms="4.7824230790138245e-01" purity="3.9000156521797180e-01" nType="-99"/>
          <Node pos="r" depth="2" NCoef="0" IVar="-1" Cut="0.0000000000000000e+00" cType="1" res="-1.7680680379271507e-02" rms="2.8084447979927063e-01" purity="8.6437501013278961e-02" nType="-99"/>
        </Node>
      </Node>
    </BinaryTree>
    <BinaryTree type="DecisionTree" boostWeight="1.0000000000000000e+00" itree="30">
      <Node pos="s" depth="0" NCoef="0" IVar="2" Cut="1.4960075914859772e-01" cType="1" res="9.2762053012847900e-02" rms="4.0596917271614075e-01" purity="5.0592392683029175e-01" nType="0">
        <Node pos="l" depth="1" NCoef="0" IVar="4" Cut="2.8892052173614502e-01" cType="1" res="2.8918305039405823e-01" rms="3.6165654659271240e-01" purity="8.4198462963104248e-01" nType="0">
          <Node pos="l" depth="2" NCoef="0" IVar="-1" Cut="0.0000000000000000e+00" cType="1" res="2.0242189057171345e-03" rms="4.7169476747512817e-01" purity="6.5669399499893188e-01" nType="-99"/>
          <Node pos="r" depth="2" NCoef="0" IVar="-1" Cut="0.0000000000000000e+00" cType="1" res="3.9795436896383762e-03" rms="3.2530790567398071e-01" purity="8.7937724590301514e-01" nType="-99"/>
        </Node>
        <Node pos="r" depth="1" NCoef="0" IVar="2" Cut="2.9209682345390320e-01" cType="1" res="-6.0423340648412704e-02" rms="3.7119334936141968e-01" purity="2.4383591115474701e-01" nType="0">
          <Node pos="l" depth="2" NCoef="0" IVar="-1" Cut="0.0000000000000000e+00" cType="1" res="1.5258719213306904e-03" rms="4.7597149014472961e-01" purity="6.4399987459182739e-01" nType="-99"/>
          <Node pos="r" depth="2" NCoef="0" IVar="-1" Cut="0.0000000000000000e+00" cType="1" res="-8.4651531651616096e-03" rms="3.2676729559898376e-01" purity="1.3926799595355988e-01" nType="-99"/>
        </Node>
      </Node>
    </BinaryTree>
    <BinaryTree type="DecisionTree" boostWeight="1.0000000000000000e+00" itree="31">
      <Node pos="s" depth="0" NCoef="0" IVar="2" Cut="2.9920700192451477e-01" cType="1" res="9.0245455503463745e-02" rms="4.0699809789657593e-01" purity="5.0021886825561523e-01" nType="0">
        <Node pos="l" depth="1" NCoef="0" IVar="0" Cut="4.6275588870048523e-01" cType="1" res="2.4012675881385803e-01" rms="4.0124955773353577e-01" purity="7.9382914304733276e-01" nType="0">
          <Node pos="l" depth="2" NCoef="0" IVar="-1" Cut="0.0000000000000000e+00" cType="1" res="2.4213488213717937e-03" rms="4.5052045583724976e-01" purity="7.1077960729598999e-01" nType="-99"/>
          <Node pos="r" depth="2" NCoef="0" IVar="-1" Cut="0.0000000000000000e+00" cType="1" res="3.9793159812688828e-03" rms="3.2228913903236389e-01" purity="8.8009846210479736e-01" nType="-99"/>
        </Node>
        <Node pos="r" depth="1" NCoef="0" IVar="4" Cut="4.1049188375473022e-01" cType="1" res="-9.4927139580249786e-02" rms="3.3067339658737183e-01" purity="1.3747473061084747e-01" nType="0">
          <Node pos="l" depth="2" NCoef="0" IVar="-1" Cut="0.0000000000000000e+00" cType="1" res="-1.3395266607403755e-02" rms="3.0102202296257019e-01" purity="1.0717462748289108e-01" nType="-99"/>
          <Node pos="r" depth="2" NCoef="0" IVar="-1" Cut="0.0000000000000000e+00" cType="1" res="-5.2048824727535248e-03" rms="3.5542726516723633e-01" purity="1.6694812476634979e-01" nType="-99"/>
        </Node>
      </Node>
    </BinaryTree>
    <BinaryTree type="DecisionTree" boostWeight="1.0000000000000000e+00" itree="32">
      <Node pos="s" depth="0" NCoef="0" IVar="2" Cut="2.9920038580894470e-01" cType="1" res="9.1130293905735016e-02" rms="4.0386745333671570e-01" purity="5.0246614217758179e-01" nType="0">
        <Node pos="l" depth="1" NCoef="0" IVar="4" Cut="2.3825581371784210e-01" cType="1" res="2.4171416461467743e-01" rms="3.9884483814239502e-01" purity="7.9705417156219482e-01" nType="0">
          <Node pos="l" depth="2" NCoef="0" IVar="-1" Cut="0.0000000000000000e+00" cType="1" res="-8.8428129674866796e-04" rms="4.9877536296844482e-01" purity="4.7905477881431580e-01" nType="-99"/>
          <Node pos="r" depth="2" NCoef="0" IVar="-1" Cut="0.0000000000000000e+00" cType="1" res="3.4599374048411846e-03" rms="3.8023495674133301e-01" purity="8.2330530881881714e-01" nType="-99"/>
        </Node>
        <Node pos="r" depth="1" NCoef="0" IVar="2" Cut="5.6990414857864380e-01" cType="1" res="-9.7310118377208710e-02" rms="3.2290610671043396e-01" purity="1.3381913304328918e-01" nType="0">
          <Node pos="l" depth="2" NCoef="0" IVar="-1" Cut="0.0000000000000000e+00" cType="1" res="-6.8127596750855446e-04" rms="4.8443248867988586e-01" purity="4.0168398618698120e-01" nType="-99"/>
          <Node pos="r" depth="2" NCoef="0" IVar="-1" Cut="0.0000000000000000e+00" cType="1" res="-1.5485523268580437e-02" rms="2.8753721714019775e-01" purity="9.1402120888233185e-02" nType="-99"/>
        </Node>
      </Node>
    </BinaryTree>
    <BinaryTree type="DecisionTree" boostWeight="1.0000000000000000e+00" itree="33">
      <Node pos="s" depth="0" NCoef="0" IVar="2" Cut="1.4960074424743652e-01" cType="1" res="8.9348852634429932e-02" rms="4.0431895852088928e-01" purity="4.9672719836235046e-01" nType="0">
        <Node pos="l" depth="1" NCoef="0" IVar="4" Cut="2.4606133997440338e-01" cType="1" res="2.7765262126922607e-01" rms="3.6755973100662231e-01" purity="8.3521986007690430e-01" nType="0">
          <Node pos="l" depth="2" NCoef="0" IVar="-1" Cut="0.0000000000000000e+00" cType="1" res="8.7708834325894713e-04" rms="4.9431422352790833e-01" purity="5.6859731674194336e-01" nType="-99"/>
          <Node pos="r" depth="2" NCoef="0" IVar="-1" Cut="0.0000000000000000e+00" cType="1" res="3.8118206430226564e-03" rms="3.4241509437561035e-01" purity="8.6360484361648560e-01" nType="-99"/>
        </Node>
        <Node pos="r" depth="1" NCoef="0" IVar="2" Cut="2.9207739233970642e-01" cType="1" res="-5.0809893757104874e-02" rms="3.7223124504089355e-01" purity="2.4477943778038025e-01" nType="0">
          <Node pos="l" depth="2" NCoef="0" IVar="-1" Cut="0.0000000000000000e+00" cType="1" res="1.4767204411327839e-03" rms="4.7623047232627869e-01" purity="6.4282852411270142e-01" nType="-99"/>
          <Node pos="r" depth="2" NCoef="0" IVar="-1" Cut="0.0000000000000000e+00" cType="1" res="-7.3875617235898972e-03" rms="3.3072242140769958e-01" purity="1.4182329177856445e-01" nType="-99"/>
        </Node>
      </Node>
    </BinaryTree>
    <BinaryTree type="DecisionTree" boostWeight="1.0000000000000000e+00" itree="34">
      <Node pos="s" depth="0" NCoef="0" IVar="2" Cut="2.9921269416809082e-01" cType="1" res="9.5015659928321838e-02" rms="4.0191689133644104e-01" purity="5.0609588623046875e-01" nType="0">
        <Node pos="l" depth="1" NCoef="0" IVar="0" Cut="4.6469283103942871e-01" cType="1" res="2.4058301746845245e-01" rms="3.9716336131095886e-01" purity="7.9893034696578979e-01" nType="0">
          <Node pos="l" depth="2" NCoef="0" IVar="-1" Cut="0.0000000000000000e+00" cType="1" res="2.4289079010486603e-03" rms="4.4751644134521484e-01" purity="7.1644800901412964e-01" nType="-99"/>
          <Node pos="r" depth="2" NCoef="0" IVar="-1" Cut="0.0000000000000000e+00" cType="1" res="3.9543630555272102e-03" rms="3.1623587012290955e-01" purity="8.8507515192031860e-01" nType="-99"/>
        </Node>
        <Node pos="r" depth="1" NCoef="0" IVar="0" Cut="5.1063334941864014e-01" cType="1" res="-9.0602323412895203e-02" rms="3.2389315962791443e-01" purity="1.3269250094890594e-01" nType="0">
          <Node pos="l" depth="2" NCoef="0" IVar="-1" Cut="0.0000000000000000e+00" cType="1" res="-6.7019336856901646e-03" rms="3.3750417828559875e-01" purity="1.4589112997055054e-01" nType="-99"/>
          <Node pos="r" depth="2" NCoef="0" IVar="-1" Cut="0.0000000000000000e+00" cType="1" res="-2.6371749117970467e-02" rms="2.2194348275661469e-01" purity="5.8383181691169739e-02" nType="-99"/>
        </Node>
      </Node>
    </BinaryTree>
    <BinaryTree type="DecisionTree" boostWeight="1.0000000000000000e+00" itree="35">
      <Node pos="s" depth="0" NCoef="0" IVar="2" Cut="1.4960655570030212e-01" cType="1" res="8.8981859385967255e-02" rms="4.0153986215591431e-01" purity="4.9644780158996582e-01" nType="0">
        <Node pos="l" depth="1" NCoef="0" IVar="0" Cut="4.6294692158699036e-01" cType="1" res="2.7449867129325867e-01" rms="3.6720636487007141e-01" purity="8.3547180891036987e-01" nType="0">
          <Node pos="l" depth="2" NCoef="0" IVar="-1" Cut="0.0000000000000000e+00" cType="1" res="2.7931672520935535e-03" rms="4.3050983548164368e-01" purity="7.4896019697189331e-01" nType="-99"/>
          <Node pos="r" depth="2" NCoef="0" IVar="-1" Cut="0.0000000000000000e+00" cType="1" res="4.1409623809158802e-03" rms="2.8605917096138000e-01" purity="9.0833067893981934e-01" nType="-99"/>
        </Node>
        <Node pos="r" depth="1" NCoef="0" IVar="2" Cut="4.3455976247787476e-01" cType="1" res="-4.9913424998521805e-02" rms="3.6869469285011292e-01" purity="2.4262261390686035e-01" nType="0">
          <Node pos="l" depth="2" NCoef="0" IVar="-1" Cut="0.0000000000000000e+00" cType="1" res="1.1032399488613009e-03" rms="4.8355984687805176e-01" purity="5.9277838468551636e-01" nType="-99"/>
          <Node pos="r" depth="2" NCoef="0" IVar="-1" Cut="0.0000000000000000e+00" cType="1" res="-1.2440871447324753e-02" rms="2.9922255873680115e-01" purity="1.0179515182971954e-01" nType="-99"/>
        </Node>
      </Node>
    </BinaryTree>
    <BinaryTree type="DecisionTree" boostWeight="1.0000000000000000e+00" itree="36">
      <Node pos="s" depth="0" NCoef="0" IVar="2" Cut="1.4960075914859772e-01" cType="1" res="9.2100620269775391e-02" rms="4.0119546651840210e-01" purity="4.9874866008758545e-01" nType="0">
        <Node pos="l" depth="1" NCoef="0" IVar="0" Cut="4.5142158865928650e-01" cType="1" res="2.7328240871429443e-01" rms="3.6666876077651978e-01" purity="8.3597439527511597e-01" nType="0">
          <Node pos="l" depth="2" NCoef="0" IVar="-1" Cut="0.0000000000000000e+00" cType="1" res="2.6789344847202301e-03" rms="4.3333974480628967e-01" purity="7.4373179674148560e-01" nType="-99"/>
          <Node pos="r" depth="2" NCoef="0" IVar="-1" Cut="0.0000000000000000e+00" cType="1" res="4.0777623653411865e-03" rms="2.9052007198333740e-01" purity="9.0512102842330933e-01" nType="-99"/>
        </Node>
        <Node pos="r" depth="1" NCoef="0" IVar="2" Cut="7.1950924396514893e-01" cType="1" res="-4.2030718177556992e-02" rms="3.7187567353248596e-01" purity="2.4909585714340210e-01" nType="0">
          <Node pos="l" depth="2" NCoef="0" IVar="-1" Cut="0.0000000000000000e+00" cType="1" res="1.0549648432061076e-03" rms="4.7870773077011108e-01" purity="5.4509091377258301e-01" nType="-99"/>
          <Node pos="r" depth="2" NCoef="0" IVar="-1" Cut="0.0000000000000000e+00" cType="1" res="-1.4359885826706886e-02" rms="2.8635969758033752e-01" purity="9.0346314013004303e-02" nType="-99"/>
        </Node>
      </Node>
    </BinaryTree>
    <BinaryTree type="DecisionTree" boostWeight="1.0000000000000000e+00" itree="37">
      <Node pos="s" depth="0" NCoef="0" IVar="2" Cut="1.4960268139839172e-01" cType="1" res="9.2355705797672272e-02" rms="3.9904466271400452e-01" purity="4.9999251961708069e-01" nType="0">
        <Node pos="l" depth="1" NCoef="0" IVar="4" Cut="2.4606133997440338e-01" cType="1" res="2.7297815680503845e-01" rms="3.6525133252143860e-01" purity="8.3745306730270386e-01" nType="0">
          <Node pos="l" depth="2" NCoef="0" IVar="-1" Cut="0.0000000000000000e+00" cType="1" res="7.4703403515741229e-04" rms="4.9418428540229797e-01" purity="5.6709343194961548e-01" nType="-99"/>
          <Node pos="r" depth="2" NCoef="0" IVar="-1" Cut="0.0000000000000000e+00" cType="1" res="3.7202110979706049e-03" rms="3.4052690863609314e-01" purity="8.6516630649566650e-01" nType="-99"/>
        </Node>
        <Node pos="r" depth="1" NCoef="0" IVar="2" Cut="4.3455418944358826e-01" cType="1" res="-4.5457791537046432e-02" rms="3.6750310659408569e-01" purity="2.4251279234886169e-01" nType="0">
          <Node pos="l" depth="2" NCoef="0" IVar="-1" Cut="0.0000000000000000e+00" cType="1" res="1.0623215930536389e-03" rms="4.8358827829360962e-01" purity="5.9195649623870850e-01" nType="-99"/>
          <Node pos="r" depth="2" NCoef="0" IVar="-1" Cut="0.0000000000000000e+00" cType="1" res="-1.1709070764482021e-02" rms="2.9802525043487549e-01" purity="1.0123409330844879e-01" nType="-99"/>
        </Node>
      </Node>
    </BinaryTree>
    <BinaryTree type="DecisionTree" boostWeight="1.0000000000000000e+00" itree="38">
      <Node pos="s" depth="0" NCoef="0" IVar="2" Cut="1.4960268139839172e-01" cType="1" res="9.0123400092124939e-02" rms="3.9940875768661499e-01" purity="4.9503555893898010e-01" nType="0">
        <Node pos="l" depth="1" NCoef="0" IVar="4" Cut="2.4620360136032104e-01" cType="1" res="2.6723644137382507e-01" rms="3.6879572272300720e-01" purity="8.3339190483093262e-01" nType="0">
          <Node pos="l" depth="2" NCoef="0" IVar="-1" Cut="0.0000000000000000e+00" cType="1" res="4.5251706615090370e-04" rms="4.9593883752822876e-01" purity="5.5019253492355347e-01" nType="-99"/>
          <Node pos="r" depth="2" NCoef="0" IVar="-1" Cut="0.0000000000000000e+00" cType="1" res="3.6854492500424385e-03" rms="3.4407266974449158e-01" purity="8.6185801029205322e-01" nType="-99"/>
        </Node>
        <Node pos="r" depth="1" NCoef="0" IVar="2" Cut="2.9210481047630310e-01" cType="1" res="-4.2807675898075104e-02" rms="3.6873221397399902e-01" purity="2.4108432233333588e-01" nType="0">
          <Node pos="l" depth="2" NCoef="0" IVar="-1" Cut="0.0000000000000000e+00" cType="1" res="1.3025532243773341e-03" rms="4.7824537754058838e-01" purity="6.3509279489517212e-01" nType="-99"/>
          <Node pos="r" depth="2" NCoef="0" IVar="-1" Cut="0.0000000000000000e+00" cType="1" res="-6.6081313416361809e-03" rms="3.2769048213958740e-01" purity="1.3948644697666168e-01" nType="-99"/>
        </Node>
      </Node>
    </BinaryTree>
    <BinaryTree type="DecisionTree" boostWeight="1.0000000000000000e+00" itree="39">
      <Node pos="s" depth="0" NCoef="0" IVar="2" Cut="1.4960075914859772e-01" cType="1" res="9.6315175294876099e-02" rms="3.9644226431846619e-01" purity="5.0444424152374268e-01" nType="0">
        <Node pos="l" depth="1" NCoef="0" IVar="4" Cut="2.7060011029243469e-01" cType="1" res="2.7216130495071411e-01" rms="3.6293727159500122e-01" purity="8.3984869718551636e-01" nType="0">
          <Node pos="l" depth="2" NCoef="0" IVar="-1" Cut="0.0000000000000000e+00" cType="1" res="1.5059545403346419e-03" rms="4.8163729906082153e-01" purity="6.2380623817443848e-01" nType="-99"/>
          <Node pos="r" depth="2" NCoef="0" IVar="-1" Cut="0.0000000000000000e+00" cType="1" res="3.7574062589555979e-03" rms="3.3162432909011841e-01" purity="8.7357825040817261e-01" nType="-99"/>
        </Node>
        <Node pos="r" depth="1" NCoef="0" IVar="2" Cut="4.3455865979194641e-01" cType="1" res="-3.8112107664346695e-02" rms="3.6729741096496582e-01" purity="2.4804100394248962e-01" nType="0">
          <Node pos="l" depth="2" NCoef="0" IVar="-1" Cut="0.0000000000000000e+00" cType="1" res="1.2635906459763646e-03" rms="4.8088529706001282e-01" purity="6.0458451509475708e-01" nType="-99"/>
          <Node pos="r" depth="2" NCoef="0" IVar="-1" Cut="0.0000000000000000e+00" cType="1" res="-1.1556099168956280e-02" rms="2.9618898034095764e-01" purity="9.9888250231742859e-02" nType="-99"/>
        </Node>
      </Node>
    </BinaryTree>
    <BinaryTree type="DecisionTree" boostWeight="1.0000000000000000e+00" itree="40">
      <Node pos="s" depth="0" NCoef="0" IVar="2" Cut="1.4960245788097382e-01" cType="1" res="9.3271024525165558e-02" rms="3.9622032642364502e-01" purity="4.9891337752342224e-01" nType="0">
        <Node pos="l" depth="1" NCoef="0" IVar="0" Cut="4.5917904376983643e-01" cType="1" res="2.6672813296318054e-01" rms="3.6628183722496033e-01" purity="8.3611935377120972e-01" nType="0">
          <Node pos="l" depth="2" NCoef="0" IVar="-1" Cut="0.0000000000000000e+00" cType="1" res="2.7012911159545183e-03" rms="4.2777091264724731e-01" purity="7.5279968976974487e-01" nType="-99"/>
          <Node pos="r" depth="2" NCoef="0" IVar="-1" Cut="0.0000000000000000e+00" cType="1" res="4.0174634195864201e-03" rms="2.8947576880455017e-01" purity="9.0584695339202881e-01" nType="-99"/>
        </Node>
        <Node pos="r" depth="1" NCoef="0" IVar="2" Cut="4.3455371260643005e-01" cType="1" res="-3.7225436419248581e-02" rms="3.6674231290817261e-01" purity="2.4522426724433899e-01" nType="0">
          <Node pos="l" depth="2" NCoef="0" IVar="-1" Cut="0.0000000000000000e+00" cType="1" res="1.2012384831905365e-03" rms="4.8254597187042236e-01" purity="6.0060745477676392e-01" nType="-99"/>
          <Node pos="r" depth="2" NCoef="0" IVar="-1" Cut="0.0000000000000000e+00" cType="1" res="-1.1345259845256805e-02" rms="2.9639470577239990e-01" purity="9.9734976887702942e-02" nType="-99"/>
        </Node>
      </Node>
    </BinaryTree>
    <BinaryTree type="DecisionTree" boostWeight="1.0000000000000000e+00" itree="41">
      <Node pos="s" depth="0" NCoef="0" IVar="2" Cut="1.4960245788097382e-01" cType="1" res="9.3757092952728271e-02" rms="3.9470818638801575e-01" purity="4.9923780560493469e-01" nType="0">
        <Node pos="l" depth="1" NCoef="0" IVar="0" Cut="4.6469473838806152e-01" cType="1" res="2.6702359318733215e-01" rms="3.6439710855484009e-01" purity="8.3810865879058838e-01" nType="0">
          <Node pos="l" depth="2" NCoef="0" IVar="-1" Cut="0.0000000000000000e+00" cType="1" res="2.7312273159623146e-03" rms="4.2600926756858826e-01" purity="7.5614386796951294e-01" nType="-99"/>
          <Node pos="r" depth="2" NCoef="0" IVar="-1" Cut="0.0000000000000000e+00" cType="1" res="4.0183067321777344e-03" rms="2.8466874361038208e-01" purity="9.0918946266174316e-01" nType="-99"/>
        </Node>
        <Node pos="r" depth="1" NCoef="0" IVar="2" Cut="2.9207843542098999e-01" cType="1" res="-3.8230799138545990e-02" rms="3.6473593115806580e-01" purity="2.4109880626201630e-01" nType="0">
          <Node pos="l" depth="2" NCoef="0" IVar="-1" Cut="0.0000000000000000e+00" cType="1" res="1.4761030906811357e-03" rms="4.7404927015304565e-01" purity="6.4989101886749268e-01" nType="-99"/>
          <Node pos="r" depth="2" NCoef="0" IVar="-1" Cut="0.0000000000000000e+00" cType="1" res="-7.0410883054137230e-03" rms="3.2054406404495239e-01" purity="1.3117323815822601e-01" nType="-99"/>
        </Node>
      </Node>
    </BinaryTree>
    <BinaryTree type="DecisionTree" boostWeight="1.0000000000000000e+00" itree="42">
      <Node pos="s" depth="0" NCoef="0" IVar="2" Cut="1.4960654079914093e-01" cType="1" res="9.0845800936222076e-02" rms="3.9346078038215637e-01" purity="4.9618631601333618e-01" nType="0">
        <Node pos="l" depth="1" NCoef="0" IVar="0" Cut="4.6294692158699036e-01" cType="1" res="2.6308581233024597e-01" rms="3.6646038293838501e-01" purity="8.3576315641403198e-01" nType="0">
          <Node pos="l" depth="2" NCoef="0" IVar="-1" Cut="0.0000000000000000e+00" cType="1" res="2.6599816046655178e-03" rms="4.2920035123825073e-01" purity="7.5068747997283936e-01" nType="-99"/>
          <Node pos="r" depth="2" NCoef="0" IVar="-1" Cut="0.0000000000000000e+00" cType="1" res="4.0093138813972473e-03" rms="2.8644499182701111e-01" purity="9.0792798995971680e-01" nType="-99"/>
        </Node>
        <Node pos="r" depth="1" NCoef="0" IVar="2" Cut="5.7703495025634766e-01" cType="1" res="-3.8742087781429291e-02" rms="3.6212614178657532e-01" purity="2.4069949984550476e-01" nType="0">
          <Node pos="l" depth="2" NCoef="0" IVar="-1" Cut="0.0000000000000000e+00" cType="1" res="1.0464168153703213e-03" rms="4.8080721497535706e-01" purity="5.6324797868728638e-01" nType="-99"/>
          <Node pos="r" depth="2" NCoef="0" IVar="-1" Cut="0.0000000000000000e+00" cType="1" res="-1.4863890595734119e-02" rms="2.7539902925491333e-01" purity="8.3125390112400055e-02" nType="-99"/>
        </Node>
      </Node>
    </BinaryTree>
    <BinaryTree type="DecisionTree" boostWeight="1.0000000000000000e+00" itree="43">
      <Node pos="s" depth="0" NCoef="0" IVar="2" Cut="1.4960074424743652e-01" cType="1" res="9.7008042037487030e-02" rms="3.9360621571540833e-01" purity="5.0218051671981812e-01" nType="0">
        <Node pos="l" depth="1" NCoef="0" IVar="4" Cut="2.4606133997440338e-01" cType="1" res="2.6321840286254883e-01" rms="3.6426371335983276e-01" purity="8.3796447515487671e-01" nType="0">
          <Node pos="l" depth="2" NCoef="0" IVar="-1" Cut="0.0000000000000000e+00" cType="1" res="2.1889778145123273e-04" rms="4.9664711952209473e-01" purity="5.4359710216522217e-01" nType="-99"/>
          <Node pos="r" depth="2" NCoef="0" IVar="-1" Cut="0.0000000000000000e+00" cType="1" res="3.6339303478598595e-03" rms="3.3904987573623657e-01" purity="8.6640000343322754e-01" nType="-99"/>
        </Node>
        <Node pos="r" depth="1" NCoef="0" IVar="2" Cut="2.9207739233970642e-01" cType="1" res="-2.9828593134880066e-02" rms="3.6705127358436584e-01" purity="2.4594074487686157e-01" nType="0">
          <Node pos="l" depth="2" NCoef="0" IVar="-1" Cut="0.0000000000000000e+00" cType="1" res="1.4643558533862233e-03" rms="4.7485622763633728e-01" purity="6.4911180734634399e-01" nType="-99"/>
          <Node pos="r" depth="2" NCoef="0" IVar="-1" Cut="0.0000000000000000e+00" cType="1" res="-5.6365672498941422e-03" rms="3.2553872466087341e-01" purity="1.3914698362350464e-01" nType="-99"/>
        </Node>
      </Node>
    </BinaryTree>
    <BinaryTree type="DecisionTree" boostWeight="1.0000000000000000e+00" itree="44">
      <Node pos="s" depth="0" NCoef="0" IVar="2" Cut="1.4960052073001862e-01" cType="1" res="9.7737945616245270e-02" rms="3.9457163214683533e-01" purity="5.0126719474792480e-01" nType="0">
        <Node pos="l" depth="1" NCoef="0" IVar="4" Cut="2.3351624608039856e-01" cType="1" res="2.6241177320480347e-01" rms="3.6410188674926758e-01" purity="8.3822661638259888e-01" nType="0">
          <Node pos="l" depth="2" NCoef="0" IVar="-1" Cut="0.0000000000000000e+00" cType="1" res="3.2006777473725379e-04" rms="4.9704468250274658e-01" purity="5.4645234346389771e-01" nType="-99"/>
          <Node pos="r" depth="2" NCoef="0" IVar="-1" Cut="0.0000000000000000e+00" cType="1" res="3.5935032647103071e-03" rms="3.4296926856040955e-01" purity="8.6243939399719238e-01" nType="-99"/>
        </Node>
        <Node pos="r" depth="1" NCoef="0" IVar="2" Cut="2.9208427667617798e-01" cType="1" res="-2.6600804179906845e-02" rms="3.7041294574737549e-01" purity="2.4684235453605652e-01" nType="0">
          <Node pos="l" depth="2" NCoef="0" IVar="-1" Cut="0.0000000000000000e+00" cType="1" res="1.3577105710282922e-03" rms="4.7562763094902039e-01" purity="6.4422041177749634e-01" nType="-99"/>
          <Node pos="r" depth="2" NCoef="0" IVar="-1" Cut="0.0000000000000000e+00" cType="1" res="-5.1268842071294785e-03" rms="3.3158317208290100e-01" purity="1.4272132515907288e-01" nType="-99"/>
        </Node>
      </Node>
    </BinaryTree>
    <BinaryTree type="DecisionTree" boostWeight="1.0000000000000000e+00" itree="45">
      <Node pos="s" depth="0" NCoef="0" IVar="2" Cut="1.4960268139839172e-01" cType="1" res="9.7293592989444733e-02" rms="3.9408460259437561e-01" purity="5.0130593776702881e-01" nType="0">
        <Node pos="l" depth="1" NCoef="0" IVar="4" Cut="2.8648012876510620e-01" cType="1" res="2.5925666093826294e-01" rms="3.6536836624145508e-01" purity="8.3681154251098633e-01" nType="0">
          <Node pos="l" depth="2" NCoef="0" IVar="-1" Cut="0.0000000000000000e+00" cType="1" res="1.6439277678728104e-03" rms="4.7392556071281433e-01" purity="6.4787638187408447e-01" nType="-99"/>
          <Node pos="r" depth="2" NCoef="0" IVar="-1" Cut="0.0000000000000000e+00" cType="1" res="3.6596078425645828e-03" rms="3.3091953396797180e-01" purity="8.7411141395568848e-01" nType="-99"/>
        </Node>
        <Node pos="r" depth="1" NCoef="0" IVar="2" Cut="4.3457472324371338e-01" cType="1" res="-2.4409528821706772e-02" rms="3.7036085128784180e-01" purity="2.4919860064983368e-01" nType="0">
          <Node pos="l" depth="2" NCoef="0" IVar="-1" Cut="0.0000000000000000e+00" cType="1" res="1.1683155316859484e-03" rms="4.8212480545043945e-01" purity="5.9861284494400024e-01" nType="-99"/>
          <Node pos="r" depth="2" NCoef="0" IVar="-1" Cut="0.0000000000000000e+00" cType="1" res="-8.6384443566203117e-03" rms="3.0599734187126160e-01" purity="1.0666729509830475e-01" nType="-99"/>
        </Node>
      </Node>
    </BinaryTree>
    <BinaryTree type="DecisionTree" boostWeight="1.0000000000000000e+00" itree="46">
      <Node pos="s" depth="0" NCoef="0" IVar="2" Cut="1.4960196614265442e-01" cType="1" res="8.9767374098300934e-02" rms="3.9192637801170349e-01" purity="4.9211576581001282e-01" nType="0">
        <Node pos="l" depth="1" NCoef="0" IVar="0" Cut="4.6469488739967346e-01" cType="1" res="2.5236389040946960e-01" rms="3.6962270736694336e-01" purity="8.3177697658538818e-01" nType="0">
          <Node pos="l" depth="2" NCoef="0" IVar="-1" Cut="0.0000000000000000e+00" cType="1" res="2.5239833630621433e-03" rms="4.3263280391693115e-01" purity="7.4408447742462158e-01" nType="-99"/>
          <Node pos="r" depth="2" NCoef="0" IVar="-1" Cut="0.0000000000000000e+00" cType="1" res="3.8912813179194927e-03" rms="2.8928014636039734e-01" purity="9.0569216012954712e-01" nType="-99"/>
        </Node>
        <Node pos="r" depth="1" NCoef="0" IVar="2" Cut="2.9207792878150940e-01" cType="1" res="-3.0497908592224121e-02" rms="3.6352595686912537e-01" purity="2.4088370800018311e-01" nType="0">
          <Node pos="l" depth="2" NCoef="0" IVar="-1" Cut="0.0000000000000000e+00" cType="1" res="1.4280702453106642e-03" rms="4.7379249334335327e-01" purity="6.5033912658691406e-01" nType="-99"/>
          <Node pos="r" depth="2" NCoef="0" IVar="-1" Cut="0.0000000000000000e+00" cType="1" res="-6.2571717426180840e-03" rms="3.2049250602722168e-01" purity="1.3117864727973938e-01" nType="-99"/>
        </Node>
      </Node>
    </BinaryTree>
    <BinaryTree type="DecisionTree" boostWeight="1.0000000000000000e+00" itree="47">
      <Node pos="s" depth="0" NCoef="0" IVar="2" Cut="2.9920014739036560e-01" cType="1" res="9.4061583280563354e-02" rms="3.9013746380805969e-01" purity="4.9832776188850403e-01" nType="0">
        <Node pos="l" depth="1" NCoef="0" IVar="4" Cut="2.8650662302970886e-01" cType="1" res="2.1816171705722809e-01" rms="3.9868819713592529e-01" purity="7.9474949836730957e-01" nType="0">
          <Node pos="l" depth="2" NCoef="0" IVar="-1" Cut="0.0000000000000000e+00" cType="1" res="7.2034209733828902e-04" rms="4.8726961016654968e-01" purity="5.8822220563888550e-01" nType="-99"/>
          <Node pos="r" depth="2" NCoef="0" IVar="-1" Cut="0.0000000000000000e+00" cType="1" res="3.3227538224309683e-03" rms="3.6939096450805664e-01" purity="8.3467942476272583e-01" nType="-99"/>
        </Node>
        <Node pos="r" depth="1" NCoef="0" IVar="2" Cut="9.7596096992492676e-01" cType="1" res="-6.0473922640085220e-02" rms="3.1740966439247131e-01" purity="1.2920917570590973e-01" nType="0">
          <Node pos="l" depth="2" NCoef="0" IVar="-1" Cut="0.0000000000000000e+00" cType="1" res="-1.2456080003175884e-04" rms="4.5194590091705322e-01" purity="3.2214003801345825e-01" nType="-99"/>
          <Node pos="r" depth="2" NCoef="0" IVar="-1" Cut="0.0000000000000000e+00" cType="1" res="-1.4766563661396503e-02" rms="2.7008754014968872e-01" purity="7.9353995621204376e-02" nType="-99"/>
        </Node>
      </Node>
    </BinaryTree>
    <BinaryTree type="DecisionTree" boostWeight="1.0000000000000000e+00" itree="48">
      <Node pos="s" depth="0" NCoef="0" IVar="2" Cut="1.4961485564708710e-01" cType="1" res="9.3135528266429901e-02" rms="3.9134985208511353e-01" purity="4.9468240141868591e-01" nType="0">
        <Node pos="l" depth="1" NCoef="0" IVar="0" Cut="4.6469488739967346e-01" cType="1" res="2.5198677182197571e-01" rms="3.6715996265411377e-01" purity="8.3437073230743408e-01" nType="0">
          <Node pos="l" depth="2" NCoef="0" IVar="-1" Cut="0.0000000000000000e+00" cType="1" res="2.4757308419793844e-03" rms="4.3218648433685303e-01" purity="7.4456888437271118e-01" nType="-99"/>
          <Node pos="r" depth="2" NCoef="0" IVar="-1" Cut="0.0000000000000000e+00" cType="1" res="3.8953144103288651e-03" rms="2.8524452447891235e-01" purity="9.0863460302352905e-01" nType="-99"/>
        </Node>
        <Node pos="r" depth="1" NCoef="0" IVar="2" Cut="2.9209598898887634e-01" cType="1" res="-2.6111880317330360e-02" rms="3.6574023962020874e-01" purity="2.3968316614627838e-01" nType="0">
          <Node pos="l" depth="2" NCoef="0" IVar="-1" Cut="0.0000000000000000e+00" cType="1" res="1.2533691478893161e-03" rms="4.7729796171188354e-01" purity="6.3944584131240845e-01" nType="-99"/>
          <Node pos="r" depth="2" NCoef="0" IVar="-1" Cut="0.0000000000000000e+00" cType="1" res="-5.1879300735890865e-03" rms="3.2562240958213806e-01" purity="1.3590551912784576e-01" nType="-99"/>
        </Node>
      </Node>
    </BinaryTree>
    <BinaryTree type="DecisionTree" boostWeight="1.0000000000000000e+00" itree="49">
      <Node pos="s" depth="0" NCoef="0" IVar="2" Cut="1.4960004389286041e-01" cType="1" res="9.6589475870132446e-02" rms="3.8857483863830566e-01" purity="5.0152653455734253e-01" nType="0">
        <Node pos="l" depth="1" NCoef="0" IVar="4" Cut="2.8637227416038513e-01" cType="1" res="2.5345560908317566e-01" rms="3.6442521214485168e-01" purity="8.3744579553604126e-01" nType="0">
          <Node pos="l" depth="2" NCoef="0" IVar="-1" Cut="0.0000000000000000e+00" cType="1" res="1.4388767303898931e-03" rms="4.7615754604339600e-01" purity="6.3961416482925415e-01" nType="-99"/>
          <Node pos="r" depth="2" NCoef="0" IVar="-1" Cut="0.0000000000000000e+00" cType="1" res="3.6019715480506420e-03" rms="3.2972285151481628e-01" purity="8.7503689527511597e-01" nType="-99"/>
        </Node>
        <Node pos="r" depth="1" NCoef="0" IVar="2" Cut="4.3455031514167786e-01" cType="1" res="-2.1071519702672958e-02" rms="3.6377063393592834e-01" purity="2.4956269562244415e-01" nType="0">
          <Node pos="l" depth="2" NCoef="0" IVar="-1" Cut="0.0000000000000000e+00" cType="1" res="1.3482363428920507e-03" rms="4.7955018281936646e-01" purity="6.1063760519027710e-01" nType="-99"/>
          <Node pos="r" depth="2" NCoef="0" IVar="-1" Cut="0.0000000000000000e+00" cType="1" res="-9.8516400903463364e-03" rms="2.9183429479598999e-01" purity="9.6627444028854370e-02" nType="-99"/>
        </Node>
      </Node>
    </BinaryTree>
    <BinaryTree type="DecisionTree" boostWeight="1.0000000000000000e+00" itree="50">
      <Node pos="s" depth="0" NCoef="0" IVar="2" Cut="1.4960028231143951e-01" cType="1" res="9.9230565130710602e-02" rms="3.8933122158050537e-01" purity="5.0395679473876953e-01" nType="0">
        <Node pos="l" depth="1" NCoef="0" IVar="4" Cut="2.7022057771682739e-01" cType="1" res="2.5506335496902466e-01" rms="3.6146014928817749e-01" purity="8.4054952859878540e-01" nType="0">
          <Node pos="l" depth="2" NCoef="0" IVar="-1" Cut="0.0000000000000000e+00" cType="1" res="1.2236457550898194e-03" rms="4.8247689008712769e-01" purity="6.1799377202987671e-01" nType="-99"/>
          <Node pos="r" depth="2" NCoef="0" IVar="-1" Cut="0.0000000000000000e+00" cType="1" res="3.5847709514200687e-03" rms="3.3015474677085876e-01" purity="8.7459814548492432e-01" nType="-99"/>
        </Node>
        <Node pos="r" depth="1" NCoef="0" IVar="2" Cut="2.9207563400268555e-01" cType="1" res="-2.2102585062384605e-02" rms="3.6639064550399780e-01" purity="2.4188189208507538e-01" nType="0">
          <Node pos="l" depth="2" NCoef="0" IVar="-1" Cut="0.0000000000000000e+00" cType="1" res="1.2323976261541247e-03" rms="4.7700253129005432e-01" purity="6.3987576961517334e-01" nType="-99"/>
          <Node pos="r" depth="2" NCoef="0" IVar="-1" Cut="0.0000000000000000e+00" cType="1" res="-4.6637030318379402e-03" rms="3.2670903205871582e-01" purity="1.3747940957546234e-01" nType="-99"/>
        </Node>
      </Node>
    </BinaryTree>
    <BinaryTree type="DecisionTree" boostWeight="1.0000000000000000e+00" itree="51">
      <Node pos="s" depth="0" NCoef="0" IVar="2" Cut="1.4960654079914093e-01" cType="1" res="9.5462188124656677e-02" rms="3.8984611630439758e-01" purity="4.9852988123893738e-01" nType="0">
        <Node pos="l" depth="1" NCoef="0" IVar="4" Cut="2.3415133357048035e-01" cType="1" res="2.4663190543651581e-01" rms="3.6793434619903564e-01" purity="8.3343255519866943e-01" nType="0">
          <Node pos="l" depth="2" NCoef="0" IVar="-1" Cut="0.0000000000000000e+00" cType="1" res="-2.1270346769597381e-04" rms="4.9849212169647217e-01" purity="5.2519339323043823e-01" nType="-99"/>
          <Node pos="r" depth="2" NCoef="0" IVar="-1" Cut="0.0000000000000000e+00" cType="1" res="3.4584156237542629e-03" rms="3.4687167406082153e-01" purity="8.5856342315673828e-01" nType="-99"/>
        </Node>
        <Node pos="r" depth="1" NCoef="0" IVar="2" Cut="4.3455862998962402e-01" cType="1" res="-1.7145618796348572e-02" rms="3.6694043874740601e-01" purity="2.4905757606029510e-01" nType="0">
          <Node pos="l" depth="2" NCoef="0" IVar="-1" Cut="0.0000000000000000e+00" cType="1" res="1.1898010270670056e-03" rms="4.8083186149597168e-01" purity="6.0148543119430542e-01" nType="-99"/>
          <Node pos="r" depth="2" NCoef="0" IVar="-1" Cut="0.0000000000000000e+00" cType="1" res="-7.8776953741908073e-03" rms="3.0128392577171326e-01" purity="1.0389320552349091e-01" nType="-99"/>
        </Node>
      </Node>
    </BinaryTree>
    <BinaryTree type="DecisionTree" boostWeight="1.0000000000000000e+00" itree="52">
      <Node pos="s" depth="0" NCoef="0" IVar="2" Cut="1.4960075914859772e-01" cType="1" res="9.3394018709659576e-02" rms="3.8826745748519897e-01" purity="4.9587941169738770e-01" nType="0">
        <Node pos="l" depth="1" NCoef="0" IVar="4" Cut="2.3400892317295074e-01" cType="1" res="2.4576425552368164e-01" rms="3.6673650145530701e-01" purity="8.3452147245407104e-01" nType="0">
          <Node pos="l" depth="2" NCoef="0" IVar="-1" Cut="0.0000000000000000e+00" cType="1" res="-5.4785696556791663e-04" rms="4.9920743703842163e-01" purity="5.0913631916046143e-01" nType="-99"/>
          <Node pos="r" depth="2" NCoef="0" IVar="-1" Cut="0.0000000000000000e+00" cType="1" res="3.4374184906482697e-03" rms="3.4581455588340759e-01" purity="8.5946691036224365e-01" nType="-99"/>
        </Node>
        <Node pos="r" depth="1" NCoef="0" IVar="2" Cut="5.7704794406890869e-01" cType="1" res="-2.0647123456001282e-02" rms="3.6405563354492188e-01" purity="2.4242356419563293e-01" nType="0">
          <Node pos="l" depth="2" NCoef="0" IVar="-1" Cut="0.0000000000000000e+00" cType="1" res="1.0475183371454477e-03" rms="4.8059204220771790e-01" purity="5.6091797351837158e-01" nType="-99"/>
          <Node pos="r" depth="2" NCoef="0" IVar="-1" Cut="0.0000000000000000e+00" cType="1" res="-1.0442540049552917e-02" rms="2.8528600931167603e-01" purity="8.9747555553913116e-02" nType="-99"/>
        </Node>
      </Node>
    </BinaryTree>
    <BinaryTree type="DecisionTree" boostWeight="1.0000000000000000e+00" itree="53">
      <Node pos="s" depth="0" NCoef="0" IVar="2" Cut="1.4960215985774994e-01" cType="1" res="1.0099519789218903e-01" rms="3.8840380311012268e-01" purity="5.0452107191085815e-01" nType="0">
        <Node pos="l" depth="1" NCoef="0" IVar="4" Cut="2.3348818719387054e-01" cType="1" res="2.4717497825622559e-01" rms="3.6399382352828979e-01" purity="8.3748036623001099e-01" nType="0">
          <Node pos="l" depth="2" NCoef="0" IVar="-1" Cut="0.0000000000000000e+00" cType="1" res="-5.4899579845368862e-04" rms="4.9882715940475464e-01" purity="5.0928789377212524e-01" nType="-99"/>
          <Node pos="r" depth="2" NCoef="0" IVar="-1" Cut="0.0000000000000000e+00" cType="1" res="3.4633476752787828e-03" rms="3.4332865476608276e-01" purity="8.6186879873275757e-01" nType="-99"/>
        </Node>
        <Node pos="r" depth="1" NCoef="0" IVar="2" Cut="2.9207810759544373e-01" cType="1" res="-7.8767351806163788e-03" rms="3.6982187628746033e-01" purity="2.5653925538063049e-01" nType="0">
          <Node pos="l" depth="2" NCoef="0" IVar="-1" Cut="0.0000000000000000e+00" cType="1" res="1.5615675365552306e-03" rms="4.6896225214004517e-01" purity="6.6498970985412598e-01" nType="-99"/>
          <Node pos="r" depth="2" NCoef="0" IVar="-1" Cut="0.0000000000000000e+00" cType="1" res="-3.5686285700649023e-03" rms="3.3149048686027527e-01" purity="1.4354340732097626e-01" nType="-99"/>
        </Node>
      </Node>
    </BinaryTree>
    <BinaryTree type="DecisionTree" boostWeight="1.0000000000000000e+00" itree="54">
      <Node pos="s" depth="0" NCoef="0" IVar="2" Cut="1.4961515367031097e-01" cType="1" res="9.6902154386043549e-02" rms="3.8577449321746826e-01" purity="5.0159806013107300e-01" nType="0">
        <Node pos="l" depth="1" NCoef="0" IVar="4" Cut="2.3429359495639801e-01" cType="1" res="2.4728007614612579e-01" rms="3.6244463920593262e-01" purity="8.3904325962066650e-01" nType="0">
          <Node pos="l" depth="2" NCoef="0" IVar="-1" Cut="0.0000000000000000e+00" cType="1" res="-5.2090431563556194e-04" rms="4.9866297841072083e-01" purity="5.1039397716522217e-01" nType="-99"/>
          <Node pos="r" depth="2" NCoef="0" IVar="-1" Cut="0.0000000000000000e+00" cType="1" res="3.4293348435312510e-03" rms="3.4139022231101990e-01" purity="8.6375480890274048e-01" nType="-99"/>
        </Node>
        <Node pos="r" depth="1" NCoef="0" IVar="2" Cut="8.6199939250946045e-01" cType="1" res="-1.7968306317925453e-02" rms="3.6288690567016602e-01" purity="2.4383100867271423e-01" nType="0">
          <Node pos="l" depth="2" NCoef="0" IVar="-1" Cut="0.0000000000000000e+00" cType="1" res="1.0573249310255051e-03" rms="4.7013011574745178e-01" purity="5.2317732572555542e-01" nType="-99"/>
          <Node pos="r" depth="2" NCoef="0" IVar="-1" Cut="0.0000000000000000e+00" cType="1" res="-1.1674170382320881e-02" rms="2.7569246292114258e-01" purity="8.3061084151268005e-02" nType="-99"/>
        </Node>
      </Node>
    </BinaryTree>
    <BinaryTree type="DecisionTree" boostWeight="1.0000000000000000e+00" itree="55">
      <Node pos="s" depth="0" NCoef="0" IVar="2" Cut="1.4960075914859772e-01" cType="1" res="9.8114654421806335e-02" rms="3.8815543055534363e-01" purity="5.0116914510726929e-01" nType="0">
        <Node pos="l" depth="1" NCoef="0" IVar="4" Cut="2.4620360136032104e-01" cType="1" res="2.4200256168842316e-01" rms="3.6589819192886353e-01" purity="8.3514124155044556e-01" nType="0">
          <Node pos="l" depth="2" NCoef="0" IVar="-1" Cut="0.0000000000000000e+00" cType="1" res="3.4197594504803419e-04" rms="4.9416911602020264e-01" purity="5.5759114027023315e-01" nType="-99"/>
          <Node pos="r" depth="2" NCoef="0" IVar="-1" Cut="0.0000000000000000e+00" cType="1" res="3.4071858972311020e-03" rms="3.4208056330680847e-01" purity="8.6340391635894775e-01" nType="-99"/>
        </Node>
        <Node pos="r" depth="1" NCoef="0" IVar="2" Cut="8.6197972297668457e-01" cType="1" res="-9.8347952589392662e-03" rms="3.6887696385383606e-01" purity="2.5061228871345520e-01" nType="0">
          <Node pos="l" depth="2" NCoef="0" IVar="-1" Cut="0.0000000000000000e+00" cType="1" res="1.1548005277290940e-03" rms="4.7258293628692627e-01" purity="5.2776342630386353e-01" nType="-99"/>
          <Node pos="r" depth="2" NCoef="0" IVar="-1" Cut="0.0000000000000000e+00" cType="1" res="-9.3831848353147507e-03" rms="2.8516823053359985e-01" purity="8.9466214179992676e-02" nType="-99"/>
        </Node>
      </Node>
    </BinaryTree>
    <BinaryTree type="DecisionTree" boostWeight="1.0000000000000000e+00" itree="56">
      <Node pos="s" depth="0" NCoef="0" IVar="2" Cut="1.4960268139839172e-01" cType="1" res="9.4844251871109009e-02" rms="3.8761582970619202e-01" purity="4.9652606248855591e-01" nType="0">
        <Node pos="l" depth="1" NCoef="0" IVar="0" Cut="4.6295469999313354e-01" cType="1" res="2.3879955708980560e-01" rms="3.6777177453041077e-01" purity="8.3307325839996338e-01" nType="0">
          <Node pos="l" depth="2" NCoef="0" IVar="-1" Cut="0.0000000000000000e+00" cType="1" res="2.3596961982548237e-03" rms="4.3048807978630066e-01" purity="7.4657374620437622e-01" nType="-99"/>
          <Node pos="r" depth="2" NCoef="0" IVar="-1" Cut="0.0000000000000000e+00" cType="1" res="3.7885892670601606e-03" rms="2.8745925426483154e-01" purity="9.0673923492431641e-01" nType="-99"/>
        </Node>
        <Node pos="r" depth="1" NCoef="0" IVar="2" Cut="2.9207864403724670e-01" cType="1" res="-1.2640614062547684e-02" rms="3.6662289500236511e-01" purity="2.4524164199829102e-01" nType="0">
          <Node pos="l" depth="2" NCoef="0" IVar="-1" Cut="0.0000000000000000e+00" cType="1" res="1.2728946749120951e-03" rms="4.7474452853202820e-01" purity="6.4727425575256348e-01" nType="-99"/>
          <Node pos="r" depth="2" NCoef="0" IVar="-1" Cut="0.0000000000000000e+00" cType="1" res="-3.7854018155485392e-03" rms="3.2750692963600159e-01" purity="1.3750261068344116e-01" nType="-99"/>
        </Node>
      </Node>
    </BinaryTree>
    <BinaryTree type="DecisionTree" boostWeight="1.0000000000000000e+00" itree="57">
      <Node pos="s" depth="0" NCoef="0" IVar="2" Cut="1.4960075914859772e-01" cType="1" res="1.0011434555053711e-01" rms="3.8898357748985291e-01" purity="5.0152128934860229e-01" nType="0">
        <Node pos="l" depth="1" NCoef="0" IVar="0" Cut="4.6470123529434204e-01" cType="1" res="2.3789244890213013e-01" rms="3.6705946922302246e-01" purity="8.3395040035247803e-01" nType="0">
          <Node pos="l" depth="2" NCoef="0" IVar="-1" Cut="0.0000000000000000e+00" cType="1" res="2.3869283031672239e-03" rms="4.2903712391853333e-01" purity="7.4958652257919312e-01" nType="-99"/>
          <Node pos="r" depth="2" NCoef="0" IVar="-1" Cut="0.0000000000000000e+00" cType="1" res="3.7608842831104994e-03" rms="2.8693786263465881e-01" purity="9.0713185071945190e-01" nType="-99"/>
        </Node>
        <Node pos="r" depth="1" NCoef="0" IVar="2" Cut="8.6197972297668457e-01" cType="1" res="-9.7996683325618505e-04" rms="3.7325841188430786e-01" purity="2.5760233402252197e-01" nType="0">
          <Node pos="l" depth="2" NCoef="0" IVar="-1" Cut="0.0000000000000000e+00" cType="1" res="1.2460924917832017e-03" rms="4.7080883383750916e-01" purity="5.3412175178527832e-01" nType="-99"/>
          <Node pos="r" depth="2" NCoef="0" IVar="-1" Cut="0.0000000000000000e+00" cType="1" res="-6.7532723769545555e-03" rms="2.9736468195915222e-01" purity="9.8201856017112732e-02" nType="-99"/>
        </Node>
      </Node>
    </BinaryTree>
    <BinaryTree type="DecisionTree" boostWeight="1.0000000000000000e+00" itree="58">
      <Node pos="s" depth="0" NCoef="0" IVar="2" Cut="1.4961369335651398e-01" cType="1" res="9.4121836125850677e-02" rms="3.8517099618911743e-01" purity="4.9650558829307556e-01" nType="0">
        <Node pos="l" depth="1" NCoef="0" IVar="4" Cut="2.6945579051971436e-01" cType="1" res="2.3541310429573059e-01" rms="3.6790168285369873e-01" purity="8.3278542757034302e-01" nType="0">
          <Node pos="l" depth="2" NCoef="0" IVar="-1" Cut="0.0000000000000000e+00" cType="1" res="1.0737568372860551e-03" rms="4.8235353827476501e-01" purity="6.1565750837326050e-01" nType="-99"/>
          <Node pos="r" depth="2" NCoef="0" IVar="-1" Cut="0.0000000000000000e+00" cType="1" res="3.3827738370746374e-03" rms="3.3823764324188232e-01" purity="8.6717659235000610e-01" nType="-99"/>
        </Node>
        <Node pos="r" depth="1" NCoef="0" IVar="2" Cut="2.9209682345390320e-01" cType="1" res="-9.9670989438891411e-03" rms="3.6386278271675110e-01" purity="2.4876898527145386e-01" nType="0">
          <Node pos="l" depth="2" NCoef="0" IVar="-1" Cut="0.0000000000000000e+00" cType="1" res="1.4525976730510592e-03" rms="4.7060719132423401e-01" purity="6.5980613231658936e-01" nType="-99"/>
          <Node pos="r" depth="2" NCoef="0" IVar="-1" Cut="0.0000000000000000e+00" cType="1" res="-3.8052382878959179e-03" rms="3.2331496477127075e-01" purity="1.3585326075553894e-01" nType="-99"/>
        </Node>
      </Node>
    </BinaryTree>
    <BinaryTree type="DecisionTree" boostWeight="1.0000000000000000e+00" itree="59">
      <Node pos="s" depth="0" NCoef="0" IVar="2" Cut="1.4960075914859772e-01" cType="1" res="9.7745448350906372e-02" rms="3.8582131266593933e-01" purity="5.0121110677719116e-01" nType="0">
        <Node pos="l" depth="1" NCoef="0" IVar="0" Cut="4.6294692158699036e-01" cType="1" res="2.3605954647064209e-01" rms="3.6543589830398560e-01" purity="8.3524417877197266e-01" nType="0">
          <Node pos="l" depth="2" NCoef="0" IVar="-1" Cut="0.0000000000000000e+00" cType="1" res="2.2701693233102560e-03" rms="4.3237033486366272e-01" purity="7.4334740638732910e-01" nType="-99"/>
          <Node pos="r" depth="2" NCoef="0" IVar="-1" Cut="0.0000000000000000e+00" cType="1" res="3.7483917549252510e-03" rms="2.8149336576461792e-01" purity="9.1072928905487061e-01" nType="-99"/>
        </Node>
        <Node pos="r" depth="1" NCoef="0" IVar="2" Cut="2.9208335280418396e-01" cType="1" res="-5.6612822227180004e-03" rms="3.6784797906875610e-01" purity="2.5148057937622070e-01" nType="0">
          <Node pos="l" depth="2" NCoef="0" IVar="-1" Cut="0.0000000000000000e+00" cType="1" res="1.3980737421661615e-03" rms="4.7162669897079468e-01" purity="6.5779364109039307e-01" nType="-99"/>
          <Node pos="r" depth="2" NCoef="0" IVar="-1" Cut="0.0000000000000000e+00" cType="1" res="-3.0467098113149405e-03" rms="3.2986828684806824e-01" purity="1.4144165813922882e-01" nType="-99"/>
        </Node>
      </Node>
    </BinaryTree>
    <BinaryTree type="DecisionTree" boostWeight="1.0000000000000000e+00" itree="60">
      <Node pos="s" depth="0" NCoef="0" IVar="2" Cut="1.4960655570030212e-01" cType="1" res="9.8026409745216370e-02" rms="3.8374927639961243e-01" purity="5.0377178192138672e-01" nType="0">
        <Node pos="l" depth="1" NCoef="0" IVar="0" Cut="4.6469882130622864e-01" cType="1" res="2.3718708753585815e-01" rms="3.6336484551429749e-01" purity="8.3762985467910767e-01" nType="0">
          <Node pos="l" depth="2" NCoef="0" IVar="-1" Cut="0.0000000000000000e+00" cType="1" res="2.3752588313072920e-03" rms="4.2649117112159729e-01" purity="7.5351524353027344e-01" nType="-99"/>
          <Node pos="r" depth="2" NCoef="0" IVar="-1" Cut="0.0000000000000000e+00" cType="1" res="3.7434201221913099e-03" rms="2.8287768363952637e-01" purity="9.0985774993896484e-01" nType="-99"/>
        </Node>
        <Node pos="r" depth="1" NCoef="0" IVar="2" Cut="4.3455865979194641e-01" cType="1" res="-7.8853871673345566e-03" rms="3.6455214023590088e-01" purity="2.4968066811561584e-01" nType="0">
          <Node pos="l" depth="2" NCoef="0" IVar="-1" Cut="0.0000000000000000e+00" cType="1" res="1.2194338487461209e-03" rms="4.7903606295585632e-01" purity="6.0706627368927002e-01" nType="-99"/>
          <Node pos="r" depth="2" NCoef="0" IVar="-1" Cut="0.0000000000000000e+00" cType="1" res="-6.5492121502757072e-03" rms="2.9916071891784668e-01" purity="1.0193090140819550e-01" nType="-99"/>
        </Node>
      </Node>
    </BinaryTree>
    <BinaryTree type="DecisionTree" boostWeight="1.0000000000000000e+00" itree="61">
      <Node pos="s" depth="0" NCoef="0" IVar="2" Cut="1.4960654079914093e-01" cType="1" res="1.0099761188030243e-01" rms="3.8482499122619629e-01" purity="5.0642693042755127e-01" nType="0">
        <Node pos="l" depth="1" NCoef="0" IVar="4" Cut="2.4042417109012604e-01" cType="1" res="2.3840275406837463e-01" rms="3.6051711440086365e-01" purity="8.4061068296432495e-01" nType="0">
          <Node pos="l" depth="2" NCoef="0" IVar="-1" Cut="0.0000000000000000e+00" cType="1" res="4.5204837078927085e-05" rms="4.9604547023773193e-01" purity="5.4615396261215210e-01" nType="-99"/>
          <Node pos="r" depth="2" NCoef="0" IVar="-1" Cut="0.0000000000000000e+00" cType="1" res="3.3581207972019911e-03" rms="3.3784341812133789e-01" purity="8.6698025465011597e-01" nType="-99"/>
        </Node>
        <Node pos="r" depth="1" NCoef="0" IVar="4" Cut="3.5577461123466492e-01" cType="1" res="-4.2673591524362564e-03" rms="3.6935812234878540e-01" purity="2.5041142106056213e-01" nType="0">
          <Node pos="l" depth="2" NCoef="0" IVar="-1" Cut="0.0000000000000000e+00" cType="1" res="-5.0109899602830410e-03" rms="3.3332264423370361e-01" purity="1.6295009851455688e-01" nType="-99"/>
          <Node pos="r" depth="2" NCoef="0" IVar="-1" Cut="0.0000000000000000e+00" cType="1" res="1.2167497770860791e-03" rms="3.8305982947349548e-01" purity="2.9758381843566895e-01" nType="-99"/>
        </Node>
      </Node>
    </BinaryTree>
    <BinaryTree type="DecisionTree" boostWeight="1.0000000000000000e+00" itree="62">
      <Node pos="s" depth="0" NCoef="0" IVar="2" Cut="1.4960052073001862e-01" cType="1" res="9.7307167947292328e-02" rms="3.8324269652366638e-01" purity="5.0256037712097168e-01" nType="0">
        <Node pos="l" depth="1" NCoef="0" IVar="0" Cut="4.6294707059860229e-01" cType="1" res="2.3326046764850616e-01" rms="3.6360034346580505e-01" purity="8.3701062202453613e-01" nType="0">
          <Node pos="l" depth="2" NCoef="0" IVar="-1" Cut="0.0000000000000000e+00" cType="1" res="2.2372209932655096e-03" rms="4.3073269724845886e-01" purity="7.4544471502304077e-01" nType="-99"/>
          <Node pos="r" depth="2" NCoef="0" IVar="-1" Cut="0.0000000000000000e+00" cType="1" res="3.7015695124864578e-03" rms="2.8214305639266968e-01" purity="9.1035586595535278e-01" nType="-99"/>
        </Node>
        <Node pos="r" depth="1" NCoef="0" IVar="2" Cut="4.3455371260643005e-01" cType="1" res="-4.1875429451465607e-03" rms="3.6568680405616760e-01" purity="2.5287958979606628e-01" nType="0">
          <Node pos="l" depth="2" NCoef="0" IVar="-1" Cut="0.0000000000000000e+00" cType="1" res="1.3046750100329518e-03" rms="4.7784683108329773e-01" purity="6.1172342300415039e-01" nType="-99"/>
          <Node pos="r" depth="2" NCoef="0" IVar="-1" Cut="0.0000000000000000e+00" cType="1" res="-6.1999750323593616e-03" rms="3.0062502622604370e-01" purity="1.0230726748704910e-01" nType="-99"/>
        </Node>
      </Node>
    </BinaryTree>
    <BinaryTree type="DecisionTree" boostWeight="1.0000000000000000e+00" itree="63">
